tree
version=v4
num_class=1
num_tree_per_iteration=1
label_index=0
max_feature_idx=153
objective=binary sigmoid:1
feature_names=numero_de_cliente foto_mes active_quarter cliente_vip internet cliente_edad cliente_antiguedad mrentabilidad mrentabilidad_annual mcomisiones mactivos_margen mpasivos_margen cproductos tcuentas ccuenta_corriente mcuenta_corriente_adicional mcuenta_corriente ccaja_ahorro mcaja_ahorro mcaja_ahorro_adicional mcaja_ahorro_dolares cdescubierto_preacordado mcuentas_saldo ctarjeta_debito ctarjeta_debito_transacciones mautoservicio ctarjeta_visa ctarjeta_visa_transacciones mtarjeta_visa_consumo ctarjeta_master ctarjeta_master_transacciones mtarjeta_master_consumo cprestamos_personales mprestamos_personales cprestamos_prendarios mprestamos_prendarios cprestamos_hipotecarios mprestamos_hipotecarios cplazo_fijo mplazo_fijo_dolares mplazo_fijo_pesos cinversion1 minversion1_pesos minversion1_dolares cinversion2 minversion2 cseguro_vida cseguro_auto cseguro_vivienda cseguro_accidentes_personales ccaja_seguridad cpayroll_trx mpayroll mpayroll2 cpayroll2_trx ccuenta_debitos_automaticos mcuenta_debitos_automaticos ctarjeta_visa_debitos_automaticos mttarjeta_visa_debitos_automaticos ctarjeta_master_debitos_automaticos mttarjeta_master_debitos_automaticos cpagodeservicios mpagodeservicios cpagomiscuentas mpagomiscuentas ccajeros_propios_descuentos mcajeros_propios_descuentos ctarjeta_visa_descuentos mtarjeta_visa_descuentos ctarjeta_master_descuentos mtarjeta_master_descuentos ccomisiones_mantenimiento mcomisiones_mantenimiento ccomisiones_otras mcomisiones_otras cforex cforex_buy mforex_buy cforex_sell mforex_sell ctransferencias_recibidas mtransferencias_recibidas ctransferencias_emitidas mtransferencias_emitidas cextraccion_autoservicio mextraccion_autoservicio ccheques_depositados mcheques_depositados ccheques_emitidos mcheques_emitidos ccheques_depositados_rechazados mcheques_depositados_rechazados ccheques_emitidos_rechazados mcheques_emitidos_rechazados tcallcenter ccallcenter_transacciones thomebanking chomebanking_transacciones ccajas_transacciones ccajas_consultas ccajas_depositos ccajas_extracciones ccajas_otras catm_trx matm catm_trx_other matm_other ctrx_quarter tmobile_app cmobile_app_trx Master_delinquency Master_status Master_mfinanciacion_limite Master_Fvencimiento Master_Finiciomora Master_msaldototal Master_msaldopesos Master_msaldodolares Master_mconsumospesos Master_mconsumosdolares Master_mlimitecompra Master_madelantopesos Master_madelantodolares Master_fultimo_cierre Master_mpagado Master_mpagospesos Master_mpagosdolares Master_fechaalta Master_mconsumototal Master_cconsumos Master_cadelantosefectivo Master_mpagominimo Visa_delinquency Visa_status Visa_mfinanciacion_limite Visa_Fvencimiento Visa_Finiciomora Visa_msaldototal Visa_msaldopesos Visa_msaldodolares Visa_mconsumospesos Visa_mconsumosdolares Visa_mlimitecompra Visa_madelantopesos Visa_madelantodolares Visa_fultimo_cierre Visa_mpagado Visa_mpagospesos Visa_mpagosdolares Visa_fechaalta Visa_mconsumototal Visa_cconsumos Visa_cadelantosefectivo Visa_mpagominimo
feature_infos=[249221323:1589582985] [202101:202103] [0:1] [0:1] [0:3] [19:101] [1:375] [-625078.98999999999:579180.45999999996] [-5458566.3300000001:4319506.3399999999] [-295966.15999999997:392784.89000000001] [-296451.62:191003.41] [-30222.669999999998:493071.72999999998] [3:17] [1:2] [1:3] [-2717.3600000000001:1936921.22] [-2610299.1099999999:25135567.539999999] [2:10] [-4752.5299999999997:14986336.65] [-2057.4299999999998:1603809.3] [-21005.5:142724206.71000001] [0:1] [-2610221.8100000001:143355449.65000001] [0:114] [0:145] [0:817883.63] [0:3] [0:372] [0:3045138.5899999999] [0:3] [0:281] [0:1455997.55] [0:547] [0:4404859.2699999996] [0:23] [0:17005345.559999999] [0:14] [0:20768481.649999999] [0:120] [0:62734575.729999997] [0:39762353.350000001] [0:16] [0:180376921.74000001] [0:45461572.359999999] [0:51] [0:251936300.05000001] [0:3] [0:4] [0:7] [0:2] [0:6] [0:94] [0:17561558.940000001] [0:2647948.96] [0:5] [0:136] [0:4664928.79] [0:85] [0:715814.13] [0:28] [0:645342.08999999997] [0:26] [0:4566678.25] [0:142] [0:28647050.530000001] [0:26] [0:18582.869999999999] [0:20] [0:38256.43] [0:27] [0:72654.949999999997] [0:28] [-11569.059999999999:12350.610000000001] [0:1624] [-295966.15999999997:392171.16999999998] [0:11] [0:11] [0:19010.810000000001] [0:11] [0:19010.810000000001] [0:624] [0:214276355.78] [0:223] [0:110652022.5] [0:104] [0:2727225] [0:225] [0:30694717.690000001] [0:79] [0:31495050] [0:16] [0:1982370] [0:11] [0:3734832] [0:1] [0:99] [0:1] [0:4019] [0:1] [0:33] [0:28] [0:18] [0:155] [0:104] [0:2727225] [0:51] [0:496800.03999999998] [0:2749] [0:1] [0:1] [0:1] [0:9] [0:203748005.49000001] [-2914209:5115] [-1:169] [-953454.09999999998:3901428.8100000001] [-641247.82999999996:3901428.8100000001] [-717560.20999999996:1118301.1399999999] [-53235.940000000002:1437315.46] [0:12013.26] [985.32000000000005:9063466.0199999996] [0:17595] [0:119.05] [-3:1771] [0:728512.23999999999] [-1927184.6899999999:2029290] [0:18591.740000000002] [1:7602] [-53235.940000000002:1437315.46] [0:126] [0:13] [0:2901462.4199999999] [0:1] [0:9] [0:203748005.49000001] [-2914237:5054] [0:178] [-756698.06999999995:3086488.6000000001] [-597709.80000000005:3618869.8199999998] [-708478.13:1332085.8200000001] [-27006.799999999999:2052749.6100000001] [0:15095.040000000001] [1011.71:12633210] [0:205806.25] [0:2381.1900000000001] [-3:133] [0:2083795.54] [-2578508.0800000001:456377.97999999998] [0:14036.24] [1:12608] [-27006.799999999999:2052749.6100000001] [0:199] [0:19] [0:2216892.5800000001]
tree_sizes=9622 9804 9786 9812 9861 9899 9895 9891 9898 9925 9905 9906 9915 9884 9911 9919 9977 9930 9931 9937 9935 9960 9949 9960 9931 9948 9944 9977 9961 9960 9924 9921 9926 9923 9932 9960 9952 9968 9956 9980 9915 9971 9936 9955 9940 9971 9952 9995 9933 9933 9933 9929 9952 9927 9922 9971 9897 9896 9907 9953 9888 9989 9970 9911 9962 9967 9905 9883 9871 9888 9954 9934 9915 9919 9892 9968 9906 9920 9925 9931 9941 9928 9956 9919 9896 9935 9919 9928 9906 9952 9916 9926 9947 9913 9947 9916 9930

Tree=0
num_leaves=90
num_cat=0
split_feature=2 11 22 51 28 33 12 29 22 51 27 149 138 120 4 18 22 24 22 33 29 131 81 11 137 127 8 33 10 8 8 71 71 8 11 149 18 153 72 7 133 72 8 33 73 10 18 72 31 153 8 71 11 12 27 8 125 32 56 80 5 116 72 10 137 18 10 6 131 8 116 11 33 22 22 16 153 22 147 7 72 153 140 134 1 25 10 137 7
split_gain=13126.8 5056.78 4798.2 3533.95 2561.53 3715.85 1648.67 1139.61 818.007 743.552 759.88 456.089 376.865 373.031 329.662 404.075 305.676 359.514 295.721 333.283 376.063 294.027 281.501 277.347 223.686 205.078 363.203 194.689 208.217 190.903 161.624 146.301 131.988 116.77 111.97 105.396 104.17 96.7411 91.6129 87.1022 84.3007 78.5751 77.2845 69.5237 57.299 54.9177 51.8927 42.9528 41.3226 43.5115 39.3669 48.6203 36.4875 30.8111 30.5365 28.2973 25.0597 23.2221 25.3843 23.0471 22.8684 22.8299 20.8714 20.7555 31.1412 23.1584 20.1746 19.4519 18.6955 18.9455 18.6926 20.7746 19.1017 18.0245 17.8126 19.3274 17.4285 16.647 16.038 14.6505 14.6344 13.5946 13.5104 12.5193 16.0297 16.4316 12.4878 12.2718 12.1089
threshold=1.0000000180025095e-35 93.285000000000011 -1624.3249999999998 1.0000000180025095e-35 2692.4650000000006 15321.460000000001 5.5000000000000009 1.0000000180025095e-35 305.31500000000005 1.0000000180025095e-35 1.5000000000000002 630.50000000000011 16593.140000000003 746672.72500000021 1.0000000180025095e-35 1.0000000180025095e-35 305.31500000000005 1.0000000180025095e-35 24494.285000000003 15321.460000000001 1.0000000180025095e-35 29.325000000000003 1827.6050000000002 543.47000000000014 1150.5350000000001 596.50000000000011 11982.420000000002 4312.7150000000011 -267.98999999999995 9000.590000000002 13611.020000000002 1.0000000180025095e-35 1.0000000180025095e-35 9000.590000000002 181.01000000000002 466.50000000000006 261.68500000000006 1343.0850000000003 1748.0150000000001 116.65500000000002 8.0000000000000018 1748.0150000000001 10419.095000000003 33936.62000000001 4.5000000000000009 1.0000000180025095e-35 261.68500000000006 1623.0900000000001 699.8900000000001 3818.1150000000002 13611.020000000002 1.0000000180025095e-35 181.01000000000002 4.5000000000000009 2.5000000000000004 19016.395 -874.06499999999994 1.0000000180025095e-35 69.840000000000018 6.5000000000000009 47.500000000000007 1.0000000180025095e-35 535.92000000000019 -364.47999999999996 8240.2000000000025 2077.8000000000006 -585.34499999999991 102.50000000000001 1.0000000180025095e-35 9000.590000000002 382.71000000000009 226.94500000000002 4312.7150000000011 9334.0000000000018 18843.515000000003 -837.83999999999992 451.60500000000008 9334.0000000000018 -41614.274999999987 2214.4900000000002 3398.6200000000003 615.82500000000016 22221.960000000003 80233.200000000012 202101.50000000003 3245.0100000000007 -39.744999999999997 67960.030000000013 3728.4300000000007
decision_type=2 2 2 2 2 2 2 2 2 2 2 8 10 8 2 2 2 2 2 2 2 10 2 2 10 10 2 2 2 2 2 2 2 2 2 10 2 10 2 2 8 2 2 2 2 2 2 2 2 10 2 2 2 2 2 2 8 2 2 2 2 8 2 2 10 2 2 2 10 2 8 2 2 2 2 2 8 2 8 2 2 10 10 10 2 2 2 10 2
left_child=2 3 6 4 5 7 -1 8 14 10 18 -8 27 35 15 -2 17 21 19 20 22 24 -3 30 25 -9 -27 28 46 32 36 -5 -30 39 42 -4 41 38 52 -18 50 48 -22 -7 -35 -36 -6 -31 49 66 51 60 67 -11 77 63 -39 58 68 74 -20 -48 -55 65 -65 73 -12 -38 69 -14 71 72 79 78 75 -58 -64 -32 87 -56 -67 -57 -77 -54 -85 -86 -52 -25 -88
right_child=1 9 13 31 12 43 11 16 -10 53 23 -13 57 -15 -16 -17 33 -19 40 -21 34 -23 -24 55 -26 26 -28 -29 29 47 54 -33 -34 44 45 -37 37 56 -40 -41 -42 -43 -44 -45 -46 -47 61 -49 -50 -51 86 -53 83 62 70 81 59 -59 -60 -61 -62 -63 76 64 -66 80 -68 -69 -70 -71 -72 -73 -74 -75 -76 82 -78 -79 -80 -81 -82 -83 -84 84 85 -87 88 -89 -90
leaf_value=-1.4937729532771362 -2.3612931515590438 -3.4291423345778673 -4.2684554755849513 -4.5928229899398936 -4.211541958675185 -4.2403688035277511 -3.3950939366908957 -3.733115475581176 -3.9517806401335829 -4.4681481246152384 -4.3368556254758488 -2.504657508190435 -4.3431551749354043 -3.4954348747950386 -3.4486176515691493 -3.175279401649505 -4.038435634349983 -4.1994378765051801 -4.3775956320459883 -4.5298882326761598 -3.9176755820074392 -4.1010450739290212 -4.1477777408297465 -4.3311775820900893 -3.9347597680378277 -2.9478338219318445 -3.6185684181930489 -4.5408651792192032 -4.0709334796504519 -4.3598236722924266 -4.348959020593874 -4.2277131691487417 -3.6327520881586031 -4.0324051456154777 -4.4285031048749657 -3.9101698631337523 -4.427617546482824 -4.5610022637914023 -4.1799103247793425 -3.6803497024513714 -4.2669679191482874 -4.1046961331978666 -4.2641827099431033 -4.5131952743756623 -4.3303895629147773 -4.198557275050038 -4.3814522610664639 -4.1076471959759848 -4.5140567559801994 -4.4789389893424234 -4.5748704290438793 -4.2244174760547137 -4.5620107737483098 -4.60250698049152 -4.4857212004300315 -4.5538836107831955 -4.5547639031034439 -4.6036477817229375 -4.5843830082035746 -4.3537729805874879 -4.5678513482703487 -4.5698624457642731 -4.4313454179493093 -4.3980601053258193 -4.5534300128825205 -4.5757421440176511 -4.1432711803737847 -4.2540474316444152 -4.5242039931500937 -4.5064997833067286 -4.5804814028313432 -4.5564081174462823 -4.5809958325696272 -4.6075564458541223 -4.5599212451910445 -4.4699679475535135 -4.5690556046529993 -4.5164147748315759 -4.533574315272781 -4.3466835588073938 -4.4619366279707764 -4.5932195738896784 -4.3527383853386903 -4.5242285985194206 -4.3328704026599869 -4.4888706697475493 -4.4604565651587276 -4.4850066265515975 -4.5445860247837739
leaf_weight=11.478016339242457 9.3198338793590683 9.3627671711146849 16.68545649480075 236.81739483587444 10.715629199519752 9.5023364918306452 9.2553968559950608 14.774265266954897 12.079246206209062 15.558055815286933 9.4057010123506171 11.435049525462089 16.406290058977905 12.37989641074091 11.961148491129277 12.970441127195953 13.421384376473727 11.553122903220354 10.661940917372705 30.353774263523519 10.661948891356589 9.8673996971920115 10.049929360859094 9.2124322140589374 10.3720476180315 13.63615043461323 15.160805561579762 18.381910436786711 15.81575839035213 15.987542456015946 9.8459218395873922 10.178773541003464 9.9640407832339406 12.132930391468109 31.073164972476661 12.981164312921463 11.005527019500734 64.819854013621807 14.774253527633844 10.984066296368836 16.889461640268564 10.876687471754847 12.358405738137661 65.957992321811616 10.887420687824486 13.14221471827477 13.346215983852746 9.620446381159125 15.128570898436008 10.26466621365398 28.850578566081822 9.5989703573286516 12.422820994630454 2465.1620967397466 17.802109085023407 91.361958564259112 19.648887865245342 24.12625483609736 20.346797704696655 10.404250509105621 11.875229206867514 10.006973973475395 10.168033104389904 17.555158677510917 33.102469966746867 331.98028967529535 9.7492916369810754 12.004081464372574 21.495669020339847 10.264665782451628 135.83500744588673 82.965548446401954 10.651199623011051 11.016260454431174 31.674435987137258 41.123087969608605 41.638460824266076 11.381323762238024 17.845055961050093 10.844471766613422 10.361299650743602 539.3565554395318 11.10216239094734 16.975351724773645 13.04557794518769 11.123634104616938 32.694465812295675 9.2339046783745271 28.453307202085853
leaf_count=1069 868 872 1554 22056 998 885 862 1376 1125 1449 876 1065 1528 1153 1114 1208 1250 1076 993 2827 993 919 936 858 966 1270 1412 1712 1473 1489 917 948 928 1130 2894 1209 1025 6037 1376 1023 1573 1013 1151 6143 1014 1224 1243 896 1409 956 2687 894 1157 229593 1658 8509 1830 2247 1895 969 1106 932 947 1635 3083 30919 908 1118 2002 956 12651 7727 992 1026 2950 3830 3878 1060 1662 1010 965 50233 1034 1581 1215 1036 3045 860 2650
internal_value=-4.51222 -4.53016 -3.26702 -4.29219 -4.13227 -3.92858 -2.40016 -3.68306 -3.28455 -4.56683 -4.52277 -2.90297 -4.38582 -3.93024 -3.04925 -2.83494 -3.83342 -3.7154 -4.37146 -4.26099 -4.16679 -3.62776 -3.80118 -4.54589 -3.54118 -3.44749 -3.30096 -4.26246 -4.20257 -4.08272 -4.49484 -4.57778 -3.90157 -4.02098 -4.27235 -4.11168 -4.44969 -4.47385 -4.3949 -3.87727 -4.46443 -4.33193 -4.1037 -4.47884 -4.17334 -4.36016 -4.38335 -4.26509 -4.38741 -4.32228 -4.49174 -4.40215 -4.43638 -4.60044 -4.54746 -4.57471 -4.51419 -4.52409 -4.49607 -4.48756 -4.47784 -4.46219 -4.60126 -4.55637 -4.49959 -4.56375 -4.23833 -4.33707 -4.45876 -4.40602 -4.5564 -4.52966 -4.47318 -4.50191 -4.50101 -4.47504 -4.54203 -4.43874 -4.46984 -4.43309 -4.5723 -4.58752 -4.44505 -4.47905 -4.454 -4.40467 -4.52373 -4.40818 -4.4996
internal_weight=5226.72 5152.51 74.215 688.055 441.059 244.581 32.1685 169.12 46.3307 4464.45 1931.93 20.6904 196.478 42.0465 34.2514 22.2903 122.79 75.3638 256.026 117.002 86.6484 63.8107 19.4127 1675.9 53.9433 43.5712 28.797 103.839 85.4566 51.3878 604.874 246.996 25.7798 47.4258 67.2357 29.6666 325.549 270.124 91.3512 24.4055 139.024 55.4249 23.0204 75.4603 23.0204 44.2154 34.0688 25.608 44.5482 29.4197 122.134 32.1361 76.577 2532.53 279.326 1071.03 178.773 92.6397 68.5134 113.953 22.5372 23.3532 2516.97 440.307 50.6576 389.649 19.155 23.0096 48.1666 26.671 258.098 122.263 39.2978 47.3077 103.549 71.8741 51.8065 21.2272 36.2914 28.6466 342.342 630.719 52.2253 53.5674 41.1446 24.1692 89.9984 18.4463 61.1478
internal_count=486791 479879 6912 64082 41078 22779 2996 15751 4315 415797 179930 1927 18299 3916 3190 2076 11436 7019 23845 10897 8070 5943 1808 156085 5024 4058 2682 9671 7959 4786 56335 23004 2401 4417 6262 2763 30320 25158 8508 2273 12948 5162 2144 7028 2144 4118 3173 2385 4149 2740 11375 2993 7132 235867 26015 99750 16650 8628 6381 10613 2099 2175 234418 41008 4718 36290 1784 2143 4486 2484 24038 11387 3660 4406 9644 6694 4825 1977 3380 2668 31884 58742 4864 4989 3832 2251 8382 1718 5695
is_linear=0
shrinkage=1


Tree=1
num_leaves=90
num_cat=0
split_feature=107 51 33 18 137 21 137 26 11 33 2 7 16 51 8 109 22 97 134 72 22 16 134 2 107 113 10 8 127 97 10 18 22 20 51 10 8 149 135 127 22 95 73 16 22 22 27 97 131 153 22 11 33 133 33 5 131 8 22 74 140 6 127 7 1 56 107 94 153 72 8 134 7 10 17 16 22 140 10 24 57 149 8 18 140 134 10 11 9
split_gain=6198.96 575.231 512.544 579.34 406.673 392.531 264.274 215.582 214.352 186.766 145.544 141.896 133.023 131.081 125.162 123.667 107.642 125.671 86.4933 81.1102 79.7259 84.3445 73.506 67.8236 114.983 62.9194 59.4848 59.2551 71.0735 55.5812 50.5196 49.2643 48.0573 54.5973 42.1109 42.9881 73.7357 39.2422 39.1601 38.5798 34.2553 37.8466 34.2179 32.7167 31.7917 31.5594 30.238 25.8899 25.7479 26.1182 24.3622 23.7985 22.9101 22.6863 30.4109 24.7613 22.5473 27.0272 24.6889 21.4229 20.8308 20.6502 28.9074 23.4571 19.1217 21.2766 18.6468 16.996 16.8244 16.6603 16.3571 15.5916 14.5071 19.366 21.6524 14.3523 14.1738 14.1172 16.4978 14.3483 13.0659 23.7862 12.4466 12.0075 11.7219 11.3725 10.8867 10.0505 9.67853
threshold=31.500000000000004 1.0000000180025095e-35 23897.290000000005 8332.1150000000016 8240.2000000000025 1.0000000180025095e-35 5458.380000000001 1.0000000180025095e-35 274.06500000000005 11339.790000000003 1.0000000180025095e-35 392.19000000000005 -157.54999999999998 1.0000000180025095e-35 11982.420000000002 1.0000000180025095e-35 -17592.589999999993 13.500000000000002 80233.200000000012 2333.4650000000006 1330.7750000000003 -297.09499999999997 190026.00000000003 1.0000000180025095e-35 12.500000000000002 -1702.9999999999998 -181.32499999999996 11982.420000000002 1234.5000000000002 1.0000000180025095e-35 -468.91499999999991 2077.8000000000006 24494.285000000003 57.260000000000012 1.0000000180025095e-35 -267.98999999999995 10419.095000000003 1875.5000000000002 -1079.9999999999998 1032.5000000000002 58591.185000000005 1.0000000180025095e-35 2.5000000000000004 -59.039999999999999 1.0000000180025095e-35 5864.7100000000009 2.5000000000000004 16.500000000000004 756.58500000000015 3818.1150000000002 -1624.3249999999998 1037.5150000000001 4312.7150000000011 8.0000000000000018 4312.7150000000011 36.500000000000007 29.325000000000003 17089.800000000007 -1.0000000180025095e-35 103.36500000000001 6847.8450000000012 59.500000000000007 1032.5000000000002 851.81000000000006 202101.50000000003 5615.0650000000005 86.500000000000014 1.0000000180025095e-35 13237.305000000002 535.92000000000019 7633.9700000000003 190026.00000000003 4441.0250000000005 -364.47999999999996 2.5000000000000004 -661.58999999999992 69537.645000000019 857.67500000000007 -1007.17 1.5000000000000002 2.5000000000000004 4255.5000000000009 1248.1350000000002 1001.0200000000001 857.67500000000007 106977.60000000002 -104.45499999999998 427.86500000000007 1292.4550000000002
decision_type=2 2 2 2 10 2 8 2 2 2 2 2 2 2 2 2 2 2 10 2 2 2 10 2 2 10 2 2 10 2 2 2 2 2 2 2 2 10 10 8 2 2 2 2 2 2 2 2 8 10 2 2 2 8 2 2 8 2 2 2 8 2 8 2 2 2 2 2 10 2 2 10 2 2 2 2 2 10 2 2 2 10 2 2 8 10 2 2 2
left_child=2 4 3 5 8 10 11 -5 9 18 -1 13 -12 29 20 16 -13 27 59 34 21 52 -17 -8 42 -20 45 28 -18 44 50 38 33 47 35 -9 39 -29 -23 -37 41 77 -25 -31 85 -27 66 -28 49 -33 -26 64 61 69 55 -55 58 -58 -32 -2 -38 -6 -63 88 -22 67 -16 68 75 -3 -61 -45 73 -42 -75 -66 -62 78 -10 -80 -77 -82 -46 -72 -4 -7 -71 -48 -64
right_child=1 53 84 7 14 6 23 19 40 -11 12 15 -14 -15 46 22 17 -19 25 -21 51 31 -24 24 30 26 32 37 -30 43 56 48 -34 -35 -36 36 60 -39 -40 -41 72 -43 -44 71 82 -47 87 -49 -50 -51 -52 -53 -54 54 -56 -57 57 -59 -60 70 76 62 63 -65 65 -67 -68 -69 -70 86 83 -73 -74 74 -76 80 -78 -79 79 -81 81 -83 -84 -85 -86 -87 -88 -89 -90
leaf_value=0.30734593944376465 0.168046053177444 -0.090477600976080458 0.070937716210706339 0.48201545571054416 -0.053635562618036529 0.077352837366512439 0.079591217513551638 -0.059137056241720908 -0.060253575492493695 -0.06547075136984383 0.64368011719803087 0.43140830013245218 0.343410352943123 -0.040649762092953838 0.088967748500052166 0.50546455465907159 0.19370710625963342 0.42939597475813662 0.060603572768176059 0.24471581858408065 -0.057179042754237151 0.13772935550859214 0.28486019902463378 0.21435927055968992 0.14340699155426603 0.2084531041333437 0.19900914491607419 0.22717345173378059 0.36596731674522165 0.19629834500189045 0.27530680125865314 0.19431626659328538 0.12514417219134766 0.46973274533449688 -0.068696901834468055 0.09030709685580271 -0.052639164964995488 0.080017378690805635 0.36780783431695108 0.32210594664941489 -0.068011190186881121 0.18733014574552123 0.34764545444177486 0.4016812655337178 0.19480221346635468 0.0092550513880187667 -0.052365414862867742 0.34700327320966179 -0.062638336562710256 -0.0042449598884417867 -0.01045905562858444 -0.069337875188980089 -0.081675761283633824 0.15664681758999383 -0.080570720731687917 -0.024484246861740604 0.19226174331881501 0.035258725705415592 0.13452453406067 0.1254497668740486 0.12786802743181311 0.17218758641783463 0.033928706425550487 0.11624562360524864 -0.059531238775181329 -0.077914347067829112 -0.069155098503723894 0.10086509884711901 -0.076952717223773004 -0.065468575417155686 0.080484236773098072 0.28167624052808649 -0.071884555386352869 -0.0055678511888070737 0.14197746698118416 0.00077301663344156533 -0.011707674717621347 -0.021813356579337303 0.13785220841582072 0.031742870365593964 0.14861669049319481 -0.00081190925386131867 0.2964830470327548 -0.024385968539158864 -0.019595255596617726 0.16504536094360037 0.028588468246744613 -0.076737008843509341 -0.06046684134905593
leaf_weight=73.106135818175972 17.436480694450438 2333.5335523020476 14.726879227906466 9.782625566236673 27.05194634757936 21.302670776844025 96.803985775448382 28.623322783969343 10.727755168452857 40.945910160429776 29.97221353277564 31.070786547847092 23.333338600583375 18.973599902354181 17.358023108914498 36.573006299324334 56.330037325620651 27.038349679671228 22.200761629268527 13.859766517765818 79.090753898955882 18.600848822854463 21.226425090804696 38.526706010103226 13.402431818656622 16.122821266762916 23.96568061131984 27.676162179559469 34.248565989546478 19.887488464824855 24.124256636947393 13.67028984706849 14.091570531949399 15.668316048569976 46.159758217632771 12.677695662714543 24.218354881741107 38.574627540074289 10.177596582099794 12.863420244306324 34.539104571565986 12.671386036090551 30.837109004147351 20.438833081163466 24.600900439545512 12.599667378701268 197.55903975758702 18.723561473190784 11.538394487462936 10.351440798491238 28.844164608977735 123.58822996541858 27.561499883420765 10.106065748259427 57.731791896745563 19.979190298356116 19.193760088644922 19.816118353046477 20.481556094251573 17.412761946208775 15.184301335364582 12.680710944347082 16.038014279678464 14.695531116798518 18.416079335846007 27.071917492896318 10.732177008874713 17.301075282506645 20.522044924087822 34.748612627387047 15.866235375404356 18.200590678490698 56.343246396631002 50.399313337169588 10.726991464383898 51.003629800863564 11.272813620977102 50.009721925482154 17.371060555800796 32.597130373120308 18.939411142840981 18.951714406721294 18.952319607138634 25.017629150301218 93.2104517146945 34.365179351530969 15.973061595112084 631.20901047345251 24.283570521511137
leaf_count=977 904 237189 1330 570 2340 742 1047 2631 957 3689 974 697 1101 1832 1408 1681 1582 1391 1344 1200 7468 1566 1039 1415 1038 1222 1485 997 965 855 1585 1211 1061 1016 4661 964 2121 1709 861 949 3310 1106 1121 1081 1266 1034 18927 1154 1095 962 2480 12153 2556 984 5735 1963 987 937 1545 994 1173 1076 1415 1245 1691 2559 959 1607 1935 3306 698 959 5377 4548 968 4682 1034 4639 1418 2679 1750 1759 947 1691 7275 1504 1436 63131 2166
internal_value=-0.00654796 -0.0574453 0.188369 0.208622 -0.018921 0.240155 0.21397 0.0519141 0.0528144 0.117948 0.393748 0.259349 0.512244 0.193526 -0.0449893 0.301999 0.269071 0.241638 0.155668 0.0263923 -0.0103863 0.0399703 0.424449 0.144128 0.176129 0.204364 0.23591 0.209268 0.25884 0.221692 0.122404 0.127372 0.281438 0.319178 0.00635308 0.0393967 0.0764013 0.141492 0.219097 0.207049 -0.00396189 0.0329545 0.273614 0.294573 0.178702 0.121071 -0.0676661 0.26392 0.0531402 0.108752 0.0383539 -0.0354581 -0.00600519 -0.0875817 -0.0405113 0.0363603 0.16487 0.112508 0.210664 0.0763399 0.0105529 0.0160064 0.0438352 0.0142517 -0.0187959 -0.00116734 0.0285551 0.0131483 0.00127661 -0.0893154 0.0489107 0.345154 -0.0339249 -0.0115681 0.0203247 0.0162371 0.0683978 0.0152847 0.0458512 0.068631 0.0319339 0.0738781 0.239049 0.0163121 -0.00724301 0.131488 -0.0358485 -0.0709274 -0.0229208
internal_weight=5556.38 4405.9 1150.48 1042.54 1933.83 867.901 741.49 174.642 515.437 240.051 126.412 449.46 53.3056 176.722 1418.39 272.738 214.939 183.868 199.105 164.859 561.535 186.65 57.7994 292.03 195.226 123.372 101.172 156.829 90.5786 157.748 125.862 64.3386 72.4491 58.3576 151 104.84 76.2166 66.2508 28.7784 25.5411 275.386 123.377 69.3638 58.5269 99.2211 28.7225 856.858 42.6892 35.5601 24.0217 42.2466 374.885 122.311 2472.07 87.817 30.0853 83.6157 39.0099 44.6058 75.7331 50.6755 94.7498 67.6978 55.0171 251.297 172.206 28.0902 145.134 127.833 2384.26 58.2966 38.6394 152.009 95.6654 61.1263 107.311 26.4571 110.706 60.6959 49.9682 88.8948 37.8911 43.5532 40.8839 107.937 55.6679 50.7217 828.768 40.3216
internal_count=486791 428429 58362 49757 177816 34454 31402 15303 41294 16292 3052 19247 2075 9186 136522 10061 7341 6644 12603 14733 52097 16493 2720 12155 11108 8316 6972 5253 2547 7354 8572 5695 4716 3655 13533 8872 6241 2706 2427 1913 25002 10799 2536 2895 4459 2256 84425 2639 3268 2173 3518 35604 10798 250613 8682 2947 5054 1924 3130 4287 4328 8242 5902 4826 23451 15983 2367 13424 11817 241931 3383 2040 14203 8826 5516 9882 2207 9693 5054 4097 8191 3509 2213 2389 8605 2246 4742 82058 3581
is_linear=0
shrinkage=0.0942995


Tree=2
num_leaves=90
num_cat=0
split_feature=107 11 51 33 94 153 51 98 11 26 8 4 51 33 138 5 22 107 18 96 22 153 72 16 95 5 6 9 31 107 72 141 123 135 9 2 31 127 107 138 113 107 8 5 7 12 22 120 113 7 113 10 56 7 72 5 140 8 11 134 11 1 72 131 113 8 5 97 151 10 98 131 153 10 18 16 7 107 52 28 12 72 5 153 134 1 141 140 0
split_gain=4453.49 462.284 411.017 301.242 286.117 238.886 151.396 119.6 117.902 116.134 98.6238 86.2309 89.5115 81.5592 65.0464 60.7584 60.0728 56.5108 54.3916 52.9064 77.4537 46.7023 51.2511 45.4432 42.9828 42.854 42.4541 40.1653 37.509 37.7146 39.2848 36.1932 34.3216 32.3403 31.1335 43.1903 30.3957 31.6246 46.2296 29.5431 29.3513 29.0207 26.9853 24.8455 23.6093 23.1289 22.4659 21.6262 20.3269 42.6786 24.8251 20.2915 20.1549 20.107 20.0171 19.4082 19.2901 18.974 17.9831 17.5236 16.8406 15.7388 15.6687 15.1878 17.4453 15.8042 15.0646 14.7248 14.7001 14.3843 14.1667 13.6582 13.2383 12.8929 12.4529 13.0241 11.7798 11.6867 12.542 11.6235 11.3188 16.0958 17.2799 11.2791 11.1628 10.9306 10.6381 10.2488 9.46795
threshold=39.500000000000007 136.30000000000004 1.0000000180025095e-35 23897.290000000005 1.0000000180025095e-35 615.82500000000016 1.0000000180025095e-35 1.0000000180025095e-35 677.81500000000017 1.0000000180025095e-35 10419.095000000003 1.5000000000000002 1.0000000180025095e-35 11339.790000000003 6357.0600000000004 47.500000000000007 5864.7100000000009 22.500000000000004 261.68500000000006 1.0000000180025095e-35 -17592.589999999993 5495.505000000001 1748.0150000000001 -661.58999999999992 1.5000000000000002 41.500000000000007 31.500000000000004 201.85000000000005 1026.5000000000002 61.500000000000007 1748.0150000000001 1.0000000180025095e-35 2.5000000000000004 -1079.9999999999998 51.885000000000005 1.0000000180025095e-35 501.11500000000007 242.50000000000003 22.500000000000004 1325.2450000000001 -2067.9999999999995 12.500000000000002 9000.590000000002 32.500000000000007 1564.615 5.5000000000000009 1.0000000180025095e-35 1000057.6550000001 -1033.4999999999998 1204.7900000000002 -1490.4999999999998 299.27500000000003 69.840000000000018 250.85000000000005 1774.7650000000001 49.500000000000007 9066.9600000000009 6313.1000000000013 427.86500000000007 106977.60000000002 427.86500000000007 202101.50000000003 535.92000000000019 756.58500000000015 -1551.4999999999998 3810.7000000000003 49.500000000000007 68.500000000000014 5.5000000000000009 -712.44499999999982 1.0000000180025095e-35 357.76500000000004 13237.305000000002 1.0000000180025095e-35 3397.6350000000007 -297.09499999999997 4441.0250000000005 110.50000000000001 49610.200000000004 9522.135000000002 7.5000000000000009 1623.0900000000001 47.500000000000007 1976.5050000000003 507400.7950000001 202101.50000000003 1.8050000000000004 22221.960000000003 456372658.00000006
decision_type=2 2 2 2 2 10 2 2 2 2 2 2 2 2 8 2 2 2 2 2 2 10 2 2 2 2 2 2 2 2 2 8 8 10 2 2 2 10 2 8 10 2 2 2 2 2 2 10 10 2 10 2 2 2 2 2 8 2 2 10 2 2 2 10 10 2 2 2 8 2 2 8 10 2 2 2 2 2 2 2 2 2 2 10 8 2 8 8 2
left_child=1 3 5 4 7 8 9 11 13 15 16 12 14 24 19 -3 21 26 36 20 -1 22 63 -24 28 31 -16 -14 29 30 53 -21 73 56 -28 -36 37 -11 -39 52 55 44 -37 -43 -20 46 -4 58 49 50 -42 -44 -31 -2 -5 -22 -19 -34 87 -55 71 -18 -47 64 -7 85 -50 -30 -6 -10 76 74 80 -27 75 83 84 78 -64 -76 81 -63 -83 -12 86 -66 -71 88 -45
right_child=2 6 45 54 68 10 -8 -9 69 18 60 -13 27 -15 17 -17 61 33 41 25 40 -23 23 -25 -26 32 34 -29 67 39 -32 -33 57 -35 35 42 -38 38 -40 -41 48 43 51 47 -46 62 -48 -49 66 -51 -52 -53 -54 59 -56 -57 -58 -59 -60 -61 -62 72 77 -65 65 -67 -68 -69 -70 70 -72 -73 -74 -75 79 -77 -78 -79 -80 -81 -82 82 -84 -85 -86 -87 -88 -89 -90
leaf_value=0.28357836659286817 0.19316179893837968 0.10250729617396957 0.095315476428278728 -0.019217895946421076 0.34482781145477698 -0.013131441436858172 -0.072417974948903549 0.31331118916114631 -0.066190563616800646 0.056236287875081302 0.070202258719394742 -0.0053191171942942525 -0.041004332295625188 -0.056331373138818523 0.067937950340163117 0.3316965362196081 -0.073435658515318789 -0.032964766510495756 0.030464353040531716 0.36623569038579828 0.061809591766639083 -0.024735525137877693 0.049382995729482883 0.30463104549996317 0.24493504044886874 0.20650306362274315 0.22517605712045574 0.18428388994422912 -0.025560344376221868 0.19309214467745056 0.27161990135941688 0.22426099111764677 0.21136704822819183 0.16158810268682017 0.097522422350642651 0.24250007296046916 0.0078478031091708568 0.34042617759216665 0.10498758009879003 0.02270344948968836 0.208169758662796 0.14972657321693322 0.098260226427819466 -0.052896632625184535 0.18643319934453217 -0.089944525499227324 -0.055853211583018508 0.12856148223694741 0.10211489960873545 0.24828201295892227 0.080254420892840517 0.20135605311485891 0.047643543435204647 0.0096457958905374862 0.10637257342713537 0.1534574705160007 0.085388718584253065 0.11074012706688492 -0.031684321926409305 0.14303024672856129 -0.073869071534223049 -0.012594413859339668 0.087340397618375032 -0.03765134275567452 0.052694355263650045 0.015997177876309703 0.17380779084908157 0.097973289592943921 0.4491781627881532 -0.045221826811768749 0.079470571553860739 -0.068926006150645217 -0.068156613631012594 0.30017603878474525 0.027451345523131665 0.1145055867179761 -0.059666151872083843 -0.079818037900671795 -0.054164822669141105 -0.067423358752767948 -0.043852315355671898 0.16474580777797079 -0.0081980718003022788 -0.041197940580097889 0.095973414617777419 0.16863462969842125 0.051036147329900215 0.091864600623036544 0.030420325748649554
leaf_weight=42.723307530395687 18.853396967984736 20.336037524975836 10.391976547427474 83.247361419722438 24.057261169888079 24.00455455109477 82.700664929114282 44.063570467755198 55.121954915113747 14.830010941252111 11.383590703830121 29.131200201809406 27.785805100575089 36.236002429388463 44.907136533409357 20.812585565261543 90.732138088904321 28.36271958053112 17.152368918061256 29.445898108184338 48.518686675466597 93.414046907797456 11.705642393790187 13.193013538606463 16.029607329517603 27.007018455304205 62.602025215514004 9.4237661743536574 32.258023032918572 20.52386284712702 19.205984119325876 34.881439478136599 27.651594269089401 19.409003706648946 83.87862709350884 45.955965015105903 13.654963376000522 15.110963052138688 14.564095006324349 56.367795469239354 23.158183610066772 11.531119170598684 34.5378671977669 15.471979742869733 17.370207280851901 2113.4558281386271 55.065976267680526 12.204734177328644 55.210374278016388 60.23703264631331 32.321932970546186 33.387916119769216 14.427222923375664 18.59981722664088 13.054843288846312 35.641814884729683 21.550643401220441 41.92953843716532 87.311686720699072 16.553435287438333 605.65520908683538 64.954844423569739 10.839757146313788 21.229819541797042 11.44908716529608 18.588397742249072 49.367923073470592 11.689450902864335 23.961650683544576 30.091874375939369 14.559272316284476 99.702822734601796 48.743485180661082 25.311910772696137 14.572344425134359 9.4347565872594696 39.690843996591866 24.39758619107306 11.456580384634433 54.165399996563792 56.8032410684973 10.875303986482324 9.7374523729085904 27.866320538334548 10.339213609695433 19.626703505404294 15.452209210954605 18.085378213785589 56.125323265790939
leaf_count=639 945 835 1070 6642 1067 1944 8766 1241 5530 965 996 814 2755 3377 823 922 9220 1876 1138 1065 1137 8562 940 1025 1015 1122 1384 690 2432 1214 1092 1044 914 1297 639 1480 1040 873 1052 3913 996 925 900 1265 1250 234589 5693 1024 1656 1674 1241 920 906 1070 1131 915 846 1521 7988 1071 64859 6131 1017 1951 929 1490 1544 930 670 2779 1336 9715 5019 825 1243 869 3909 2423 1099 5371 5483 1003 915 2661 847 1534 1351 1278 4534
internal_value=-0.0069212 0.126977 -0.0602175 0.157533 0.171957 -0.0259371 0.0418294 0.161351 0.0354501 0.0700704 -0.045781 0.154479 0.159404 0.0749444 0.165278 0.218429 -0.012524 0.13516 0.0492643 0.186429 0.164678 0.0252439 0.0642162 0.184631 0.0961325 0.226979 0.152614 0.0160526 0.0846914 0.105364 0.155786 0.28925 0.194118 0.0582997 0.167218 0.148872 0.130921 0.168682 0.224876 0.0649384 0.147993 0.0290769 0.186693 0.0153415 0.108941 -0.0870774 -0.031854 0.00715113 0.16609 0.193321 0.133648 0.148935 0.133053 0.114593 -0.0021927 0.100622 0.0181357 0.150729 -0.00122078 0.0724557 -0.0657914 -0.0410946 -0.0887508 0.0326228 0.0528744 0.0847775 0.135959 0.00729798 0.396899 -0.0268652 -0.00718279 -0.0432591 -0.0257405 0.251822 -0.0214655 0.0150243 -0.0203831 -0.0347189 0.0146304 -0.04731 -0.0112185 0.0104451 0.0830472 -0.00888871 0.00751748 0.125919 -0.0125634 0.0284374 0.0124158
internal_weight=5549.43 1579.99 3969.45 1162.72 1066.42 1743.84 417.262 1018.4 426 334.561 1317.84 974.339 945.208 260.745 907.999 41.1486 495.058 374.592 293.413 533.407 347.179 213.211 119.797 24.8987 224.509 186.227 305.27 37.2096 208.479 164.532 73.2126 64.3273 121.9 69.3224 260.362 197.76 58.16 44.5051 29.6751 91.3189 304.456 235.253 113.882 200.73 34.5226 2225.61 65.458 189.199 220.295 115.717 55.4801 67.9258 34.9511 54.0066 96.3022 84.1605 49.9134 69.5811 176.994 35.1533 822.78 281.846 2160.15 94.8986 73.6687 49.6642 104.578 43.9475 48.0189 165.255 110.133 217.125 191.114 52.3189 117.422 48.6847 95.5741 46.6939 22.2963 68.7377 142.371 85.5676 20.6128 39.2499 55.8833 31.0758 45.5441 89.6827 71.5973
internal_count=486791 75323 411468 41468 33695 165577 33855 31958 33717 25089 131860 30717 29903 17965 26458 1757 46146 10165 23332 16293 9802 18375 9813 1965 14588 6491 6146 3445 13573 10211 4178 2109 4382 4019 5323 3939 3930 2890 1925 6033 9163 19402 3300 17014 2388 245891 6763 16089 7111 3911 2237 1820 2120 3086 7773 2052 2722 2435 15065 2141 85714 27771 239128 7848 5897 3953 3200 3362 1737 15752 10222 20855 18551 1947 11140 4526 8886 4539 2116 6614 13532 8049 1918 3657 4977 2463 4130 7077 5799
is_linear=0
shrinkage=0.0942995


Tree=3
num_leaves=90
num_cat=0
split_feature=107 133 51 52 33 11 22 153 50 137 96 94 21 32 153 7 8 22 9 8 135 18 28 10 60 98 94 5 135 131 12 33 6 21 7 113 149 10 8 72 12 116 18 16 72 151 22 16 112 6 73 113 22 0 7 5 22 8 113 72 17 72 115 5 1 1 10 74 64 150 112 127 95 127 72 18 18 107 72 151 6 149 52 8 113 153 151 71 72
split_gain=3437.77 531.838 400.584 288.839 211.299 202.527 169.518 134.025 124.244 116.944 91.7156 79.0539 73.3533 70.1943 64.3047 59.2057 54.9845 49.6629 47.6686 47.3862 43.276 41.7979 41.7421 41.3134 37.1246 40.7306 34.9662 34.4115 34.372 33.5823 32.7698 31.9023 29.3158 29.1373 28.6084 27.1385 26.2402 25.2694 24.3006 33.5138 23.4331 23.3917 21.5298 21.5296 41.8187 21.1964 20.8707 26.5999 35.8612 26.0297 20.4899 20.3114 19.8938 19.2929 23.374 21.093 18.2919 18.0181 17.5609 15.9515 15.3013 15.2998 15.2265 15.2184 15.1333 14.9193 21.681 14.7059 13.261 11.7935 11.6506 11.4951 17.3735 11.3966 10.9507 10.7856 10.7818 10.5945 10.5566 10.056 9.99745 12.3358 9.81003 9.68524 11.5695 9.22915 9.04467 9.01514 8.66795
threshold=39.500000000000007 8.0000000000000018 1.0000000180025095e-35 14721.890000000001 23897.290000000005 543.47000000000014 24494.285000000003 615.82500000000016 1.0000000180025095e-35 8240.2000000000025 1.0000000180025095e-35 1.0000000180025095e-35 1.0000000180025095e-35 1.0000000180025095e-35 123.16500000000001 689.84500000000014 7633.9700000000003 -17592.589999999993 547.54500000000019 6313.1000000000013 -530.99999999999989 1001.0200000000001 6823.8750000000009 1.0000000180025095e-35 2235.7000000000003 1.0000000180025095e-35 1.0000000180025095e-35 57.500000000000007 -1.0000000180025095e-35 1.0000000180025095e-35 5.5000000000000009 7613.8000000000011 92.500000000000014 1.0000000180025095e-35 -569.12999999999988 -1611.4999999999998 630.50000000000011 -1007.17 13611.020000000002 1317.6950000000002 5.5000000000000009 4687.8250000000007 261.68500000000006 -1314.1149999999998 1748.0150000000001 2.5000000000000004 48428.320000000007 -516.34499999999991 139352.40000000002 113.50000000000001 6.5000000000000009 -484.99999999999994 13555.450000000003 839527150.50000012 1204.7900000000002 63.500000000000007 1.0000000180025095e-35 19016.395 -591.99999999999989 535.92000000000019 3.5000000000000004 3398.6200000000003 2016.3650000000002 36.500000000000007 202102.50000000003 202101.50000000003 299.27500000000003 203.23500000000004 865.06500000000017 2585.3950000000004 216418.50000000003 1742.5000000000002 1.0000000180025095e-35 1924.5000000000002 407.02500000000003 6525.1200000000008 10312.420000000002 110.50000000000001 1774.7650000000001 17.500000000000004 121.50000000000001 5103.5000000000009 49610.200000000004 10419.095000000003 -1230.9999999999998 3818.1150000000002 1.5000000000000002 1.0000000180025095e-35 1.0000000180025095e-35
decision_type=2 10 2 2 2 2 2 8 2 10 2 2 2 2 8 2 2 2 2 2 10 2 2 2 2 2 2 2 8 8 2 2 2 2 2 10 10 2 2 2 2 10 2 2 2 10 2 2 10 2 2 8 2 2 2 2 2 2 8 2 2 2 8 2 2 2 2 2 2 8 8 8 2 8 2 2 2 2 2 10 2 10 2 2 8 10 8 2 2
left_child=1 3 5 4 6 7 8 24 9 10 12 15 18 19 17 36 -17 -14 -1 26 21 29 52 -18 25 31 34 65 38 35 -19 37 -25 -21 76 -11 42 -2 39 58 56 43 -12 -36 73 -37 47 69 51 -50 64 -49 -7 55 63 83 -4 61 -8 -42 -54 68 -28 -55 -35 -16 -67 86 71 -39 -31 72 79 -45 -48 -40 85 82 -6 -24 -23 -82 -61 84 -32 -9 -38 -5 -87
right_child=2 -3 40 87 78 22 28 13 -10 20 11 -13 14 -15 27 16 23 30 -20 33 -22 80 57 32 -26 -27 62 -29 -30 70 53 -33 -34 50 41 45 67 46 75 -41 59 -43 -44 44 -46 -47 74 48 49 -51 -52 -53 60 54 -56 -57 -58 -59 -60 77 -62 -63 -64 -65 -66 66 -68 -69 -70 -71 -72 -73 -74 -75 -76 -77 -78 -79 -80 -81 81 -83 -84 -85 -86 88 -88 -89 -90
leaf_value=0.23632183102096144 -0.028511483251463354 0.556156401640724 0.07824075099328387 -0.070850732205215095 -0.027668190580216457 0.086913868313481552 -0.023417532572985556 0.061088372848595668 -0.019296003237434738 0.015870612966755612 0.1267009000502522 0.31027129458927893 0.22942297539640524 -0.071730522799418509 0.01158001966164416 0.27941358373964514 0.090577807082548686 0.032066361465861053 0.12914890109650654 0.13424734119128551 0.20131252792397233 -0.046457821541622805 -0.039784796956342947 0.25482836861921165 -0.074944274100947741 0.23466697055464864 0.2326133085492707 0.12814553523041758 0.17970951024849777 -0.049288760287955515 0.14546152900660977 -0.047179530460708961 0.14955579966923135 -0.01583483504322334 -0.00093066595858613561 0.089512895187669778 0.21413171984413848 -0.00034700637732683115 0.048042957439954008 0.15195169621976568 -0.08938768720826272 -0.032347686790901269 0.0070715970926516309 0.13251895354596688 0.27362078087489905 0.2122771760397168 -0.047586919990849269 0.052968170314373376 0.30679645542713457 0.1399443095548665 -0.047313513835273775 0.1860045129501621 -0.030769376605573637 0.17191036976319182 0.19111708745586378 0.17411357193028815 -0.053584269471656232 -0.074899443054403117 0.097590907640607169 0.072302067434329181 0.082701333142566835 0.060948579546406055 0.075454132575428975 0.081167891389489696 0.078253269599734804 0.032568913133509056 0.1133102139537218 0.08891692393854056 -0.068364926717784422 0.097849607566902003 0.057326713371690353 -0.049871145870862832 0.12729449157511402 0.030055585642847809 0.081213407438802343 -0.037283991001279639 -0.061735963403641993 -0.078484704861429985 0.045330887786621581 0.062782182529843009 0.089039739373892632 -0.040638626205684321 -0.051869393265363259 0.039124238178364898 0.068933394022801742 0.028677806561694521 0.14439619199500814 0.027207327104463136 -0.075328240867396701
leaf_weight=74.003395794890821 15.41560140904039 22.564268193207681 11.408530395478008 89.061837233603001 100.31725505646318 17.561703333631158 36.369149829261005 19.857175973244011 50.837124306708574 15.916494376957415 27.355844171717763 37.514566770754755 43.083604753948748 135.90850965678692 59.697135777212679 55.636247357353568 42.1510294303298 32.683683793991804 73.616224930621684 10.212748038582502 17.730970410630107 36.390256507322192 40.799331477843225 47.6999351978302 13.650749699212609 15.103753531351684 10.915412901900709 69.754886240698397 11.923086346127091 16.03668474406004 32.051996907219291 17.592450180090964 46.409356655552983 48.304812734946609 17.812621536664665 22.726874943822622 28.638487643562257 19.435113443993032 16.329451970756054 21.631979594007134 1934.6861799452454 17.91891257558018 26.181115970015526 16.532164393924177 11.990998028777538 27.810816079378128 11.759446990676226 33.497669014148414 16.126489383168519 17.162855479866266 158.88239983748645 14.676270280964671 113.9016792261973 26.562689096666873 77.145393871702254 30.590078495442867 52.130638157948852 447.45590341184288 15.088792911730705 11.805328634567561 11.648436988703905 11.463887797668574 11.013090709224343 43.104541377164423 22.181983780115843 64.957814598456025 54.291259531863034 24.739308574236929 168.69835141021758 24.696186316199601 21.114778357557952 101.85562313999981 8.472858418710528 23.197491642087698 11.72007594257593 68.154310484416783 28.07413443736732 22.561465293169022 21.368499140255153 10.737153819762169 14.293446634896101 11.998948452062903 10.864808472804723 29.371168359182775 38.870519938878715 14.438947392627599 39.14528710860759 9.1983727915212494 14.068082817830144
leaf_count=1100 1119 315 1070 9795 8031 1432 2589 1593 1909 915 796 963 558 13813 1278 1337 1979 428 843 596 1116 2828 4201 1169 1069 972 842 1632 461 1052 1084 1705 1367 4139 1239 1108 970 853 905 1283 234589 1566 1153 1298 804 1611 874 2010 848 992 15373 822 10894 1027 1721 857 5693 51730 992 1017 1069 1085 904 1605 1792 1648 858 1069 18270 1228 1043 10691 839 1707 844 6261 2718 2423 1708 1067 1122 956 1099 960 922 1304 1283 716 1275
internal_value=-0.00695886 0.101267 -0.0581271 0.0954001 0.104747 -0.0243752 0.114261 0.0113454 0.125343 0.130959 0.142356 0.1804 0.123305 -0.0127328 0.108701 0.165984 0.200418 0.13455 0.182876 0.00611598 0.061268 0.0463353 -0.0539502 0.168164 0.0754486 0.08586 0.041853 0.0719636 0.0253339 0.083109 0.12138 0.0735164 0.202914 -0.0216015 0.0268901 0.123251 0.120743 0.0864251 0.0136528 0.0534666 -0.0862845 0.0637241 0.0681987 0.0884821 0.119276 0.15707 0.0983105 0.113566 0.145508 0.220773 -0.0285408 0.0934979 -0.00709226 0.131892 0.155361 0.105568 -0.0299149 -0.0624443 0.0120653 -0.0880935 -0.0202417 -0.04615 0.153684 0.115766 0.0137744 0.0500634 0.0693285 0.151147 -0.0498641 0.0546045 0.0113054 -0.0305823 0.00215728 0.0726923 0.0167053 -0.0207916 -0.0152513 -0.0327367 -0.0148493 -0.0184159 -0.0144466 0.029859 0.0127921 0.0846607 0.103519 0.0117317 0.173859 -0.0616713 -0.0226487
internal_weight=5520.32 1772.12 3748.2 1749.55 1651.29 1704.74 1529.61 772.146 1360.11 1309.27 1125.26 375.471 749.784 561.309 602.165 337.957 191.897 353.464 147.62 425.401 184.019 166.288 932.595 136.26 210.837 197.186 185.819 248.701 169.497 103.606 310.38 182.082 94.1093 239.582 163.891 66.4542 146.06 164.49 157.574 73.0899 2043.46 87.4522 53.537 69.5333 51.7207 50.5377 149.074 125.595 81.4633 33.2893 229.369 48.1739 143.112 277.696 146.813 130.884 63.5392 789.483 51.4579 1979.92 125.55 342.027 21.9285 69.6672 70.4868 178.946 119.249 92.5231 330.563 44.1313 37.1515 161.865 60.0093 39.7297 23.4795 84.4838 76.4383 45.2316 121.686 51.5365 62.6827 26.2924 22.6701 100.294 70.9225 48.3642 67.7838 98.2602 28.507
internal_count=486791 75323 411468 75008 64497 165577 54758 64299 42267 40358 28607 12086 16521 50963 14578 11123 5852 9162 1943 37150 11751 10635 101278 4515 13336 12267 15250 5416 12491 5729 8604 11295 2536 21900 13504 3634 5271 9590 12030 4864 245891 6614 1949 5048 3809 2719 8471 6753 4672 1840 21304 2832 13395 8176 4353 3823 6763 87883 3581 239128 11963 36153 1746 2632 5931 3784 2506 3322 35068 2081 2095 16798 6107 3005 1718 7166 6890 4539 9739 5268 4906 2078 2116 2966 2006 4172 2253 10511 2579
is_linear=0
shrinkage=0.0942995


Tree=4
num_leaves=90
num_cat=0
split_feature=107 11 51 33 28 51 21 8 50 26 149 7 51 8 72 97 74 22 0 107 5 127 112 16 96 108 8 17 32 109 113 149 8 7 0 135 153 26 33 153 11 97 22 4 8 94 16 7 82 116 8 151 11 107 7 112 5 96 138 22 113 72 138 74 50 112 131 112 145 112 127 153 81 131 72 0 58 120 22 9 149 131 1 107 97 18 127 81 7
split_gain=2772.59 306.714 304.252 153.595 144.24 96.9079 91.2092 75.1264 68.6639 68.5224 62.3459 53.6198 57.9675 51.2536 55.9818 37.5006 35.708 33.8196 33.2442 29.1823 28.008 27.7504 28.1855 27.2749 27.1228 26.2633 25.0707 24.3888 24.1921 23.4525 23.0042 20.6885 20.6692 32.7666 20.4506 20.1166 19.7182 19.4819 19.8911 19.4202 19.1976 19.116 26.6962 18.28 17.2607 16.8276 16.7003 16.1269 15.8873 15.6978 15.4269 16.215 14.5653 14.3354 21.1182 14.9258 14.0259 13.9213 13.5122 14.353 15.6439 13.0346 12.687 12.2977 12.1088 16.5546 13.6482 16.0282 11.8321 11.1813 11.0887 10.4934 10.4672 12.2 10.2091 10.1116 9.99287 9.85934 16.6266 11.9943 9.68375 11.4967 9.57322 9.34096 10.9147 14.451 9.30723 9.01211 10.7065
threshold=47.500000000000007 181.01000000000002 1.0000000180025095e-35 11339.790000000003 8170.6500000000005 1.0000000180025095e-35 1.0000000180025095e-35 10419.095000000003 1.0000000180025095e-35 1.0000000180025095e-35 357.50000000000006 1204.7900000000002 1.0000000180025095e-35 11982.420000000002 1748.0150000000001 27.500000000000004 203.23500000000004 24494.285000000003 1105656707.5000002 12.500000000000002 51.500000000000007 2538.5000000000005 108314.82000000002 -3655.2199999999998 1.0000000180025095e-35 1.0000000180025095e-35 15318.425000000001 2.5000000000000004 1.0000000180025095e-35 1.0000000180025095e-35 -2067.9999999999995 3041.5000000000005 9000.590000000002 1757.2250000000001 1217084889.0000002 -2008.4999999999998 6293.1450000000013 1.0000000180025095e-35 4312.7150000000011 123.16500000000001 323.11500000000007 31.500000000000004 31639.190000000002 1.0000000180025095e-35 1248.1350000000002 1.0000000180025095e-35 -9040.5399999999991 1377.3050000000001 1.5000000000000002 5512.0500000000011 3810.7000000000003 10.500000000000002 17.855000000000004 22.500000000000004 1757.2250000000001 278704.80000000005 34.500000000000007 1.0000000180025095e-35 3041.7950000000005 -1.0000000180025095e-35 -1230.9999999999998 1774.7650000000001 16593.140000000003 1431.825 1.0000000180025095e-35 139352.40000000002 29.325000000000003 216418.50000000003 2.5000000000000004 515368.15000000008 2761.5000000000005 451.60500000000008 57738.770000000011 439.87500000000006 535.92000000000019 730429355.50000012 5102.0950000000003 477888.99500000005 82109.550000000017 201.85000000000005 2285.5000000000005 158.35500000000005 202101.50000000003 80.500000000000014 4.5000000000000009 3397.6350000000007 1406.5000000000002 34017.310000000005 2214.4900000000002
decision_type=2 2 2 2 2 2 2 2 2 2 10 2 2 2 2 2 2 2 2 2 2 8 10 2 2 2 2 2 2 2 8 10 2 2 2 8 10 2 2 8 2 2 2 2 2 2 2 2 2 8 2 10 2 2 2 8 2 2 10 2 10 2 10 2 2 10 10 10 10 8 10 10 2 8 2 2 2 10 2 2 10 8 2 2 2 2 8 2 2
left_child=1 3 4 6 13 9 46 17 10 -3 30 12 16 14 27 18 24 25 21 20 -11 22 -13 -20 44 28 -17 41 36 31 -8 -26 33 56 43 -5 45 38 48 40 -15 71 -43 52 86 49 -1 -48 -4 50 51 62 75 54 -23 -55 -21 -58 -18 60 -60 -37 -6 -42 65 -34 67 -67 -24 -59 80 -2 73 76 -39 -32 83 79 -79 -41 -38 -82 -19 84 -9 -86 -12 88 -69
right_child=2 5 37 35 7 -7 8 72 -10 19 11 15 -14 39 -16 26 58 82 23 32 -22 53 68 -25 29 -27 -28 -29 -30 -31 34 -33 64 -35 -36 61 70 74 -40 77 63 42 -44 -45 -46 -47 47 -49 -50 -51 -52 -53 -54 55 -56 -57 57 69 59 -61 -62 -63 -64 -65 -66 66 -68 87 -70 -71 -72 -73 -74 -75 -76 -77 -78 78 -80 -81 81 -83 -84 -85 85 -87 -88 -89 -90
leaf_value=0.20271379764181066 0.014161021055873194 0.1381570296370965 -0.045184433218969068 0.12198085835025896 0.103896174592756 -0.069205912913553727 0.0054781394288931952 0.094829466048144975 -0.016865525936440563 0.16136650782858028 0.092185072479036387 0.18962389907125113 -0.045629082446194423 0.09012654367470832 0.19639656602429589 0.27246606573936449 0.095431300115679102 -0.081245216112603227 0.1266632986159375 0.10552624934506261 0.018295884955223322 0.063478985565868659 0.13680843784141458 0.22386395717197682 0.079358650046864473 0.14901591480215837 0.14097876651961713 0.14983235056265332 -0.070476116995727076 0.20538245779190575 0.097188041049398016 0.17843071493632734 -0.03070437514126154 0.16459935543362145 0.034785024607940689 -0.020665037158691744 -0.036378515717221539 -0.089370230809085127 -0.076056838352361017 0.042292937533446734 0.041282693777482796 0.12219570337105716 -0.038867885614594436 0.047796840385211002 0.12156224509176589 0.11161728056985722 0.16883502322017757 0.10638128804952829 0.10198535779197682 -0.032539778418387164 -0.010106505382110767 0.14457511911166301 0.064979738572774962 0.002929301672020785 0.14699997771348636 0.10421441607218829 -0.049164124760560139 0.010829091531660152 0.129696132652693 -0.0088339729323119332 0.0086094067029708187 0.060546074338768102 -0.01131487292376049 -0.047696989662725786 -0.081207894724361948 0.13143553129933253 -0.050989044478133599 -0.021438468855863684 0.066979718209779701 0.11106230417679763 -0.0751376270257018 -0.069986973263261559 -0.077785490307304389 -0.076406225229059002 -0.041293692445358313 0.15344228287038125 -0.059183803965991669 0.10689958576136925 -0.057477343776199855 -0.045313542691467208 0.12103742507323309 -0.024477909873400223 -0.033555849850653387 -0.042811003334452397 0.086875076889293773 -0.05789567053816571 0.017925060359249782 -0.052925702864507984 0.089976317908258399
leaf_weight=63.672734591178596 47.563406978733838 49.052297663874924 13.186185593716802 11.621467654593287 14.162521282210944 101.97815301455557 46.783112141303718 11.41185639798641 45.964716685935855 23.386412611231208 27.805781960487366 61.04184165969491 26.589914371259511 30.303113771602511 23.79358163382858 27.821788074448705 50.327409575693309 54.252208928577602 53.986590669490397 14.519555598497389 25.363735633902252 55.790310793556273 49.160444557666779 48.944667209871113 46.185707043856382 10.802007823251186 24.034414999186993 15.318451683968304 38.054084865376353 44.545219135470688 55.31372697558254 31.545020904392004 88.655489170923829 15.914507793262599 77.836829507257789 108.64924783306196 27.201224450021982 1718.182181273587 44.561548104509711 15.69074927549809 27.583550453186035 29.31445827614516 13.304336140863596 63.371132822707295 67.202247148379683 20.010371398180723 98.221916128881276 58.763021096587181 12.907778200693427 37.494265505112708 33.081052860245109 18.047279205173254 49.909764259587973 31.815906447358429 52.023740605451167 21.804995910264552 28.31208199262619 50.453848191536963 20.340131839737296 37.717685280367732 17.783146130852401 20.966028443537652 21.255663918331265 27.665004942566156 19.882762607187033 15.785329319536684 14.862276955507694 12.721994432620702 38.458950812928379 12.311609604395924 28.089707613922656 18.228321773931384 337.80727503914386 136.12572844047099 40.196210135705769 58.426357187330723 112.75832208339125 12.102729628793897 9.9875386990606767 121.56540269963443 10.017936415039005 9.3195684235542995 120.72579826880246 55.859904002398252 8.7975069042295235 20.231368014588952 32.608995320275426 11.082188599742947 19.312864162959158
leaf_count=429 2572 1600 1384 871 1010 12535 2193 1233 1691 1263 1025 1495 2847 1696 1329 856 1244 6228 832 1028 1406 1111 1116 1068 1300 1015 1037 1003 3956 1410 852 931 7767 1015 1897 8221 2673 227405 5403 1303 2450 1729 1117 1057 1764 1503 1836 810 1319 3466 2670 1322 1586 1388 1119 872 2073 3878 979 2180 903 1475 1712 2593 1853 1345 1400 1075 940 936 2866 1417 41135 16276 4215 1037 13119 988 1050 10535 883 925 12569 6483 860 2284 904 1006 1639
internal_value=-0.00689071 0.0771963 -0.0604194 0.0971015 -0.02921 0.0128861 0.106034 -0.0463744 0.0962769 0.0337308 0.100543 0.114119 0.0889285 0.0200194 0.063929 0.135937 0.0984426 -0.0161069 0.126447 0.019202 0.0869297 0.111034 0.14043 0.172883 0.11909 0.00497609 0.211524 0.0384549 -0.00108435 0.150828 0.067048 0.119565 0.00833442 0.0384613 0.0764964 0.00312784 0.010991 -0.0863203 -0.0377694 -0.00643096 0.0298101 0.0227173 0.0719164 0.0907976 0.0886798 0.0313724 0.161979 0.145457 0.0276154 0.0184272 0.0405075 0.0718242 0.107449 0.0839632 0.103781 0.044117 0.0194511 0.00572903 0.0575481 0.0324092 0.0732135 -0.00752867 0.0347541 -0.00327274 -0.0117463 -0.00324309 0.0297618 0.0501369 0.106158 0.0304901 -0.02835 -0.00915311 -0.0659848 -0.0544363 -0.0882712 0.126085 -0.0401309 -0.0258884 0.0325808 -0.0352986 -0.000109984 0.0509074 -0.048342 -0.0178219 0.0166949 -0.0140214 0.0521031 0.0203731 0.0457302
internal_weight=5477.59 2130.63 3346.96 1627.03 1517.93 503.595 1485.8 1125.51 1265.14 401.617 1219.18 867.535 402.651 392.421 147.523 464.884 376.061 442.514 413.027 352.565 48.7501 310.096 148.661 102.931 249.893 267.536 51.8562 123.729 256.734 122.276 351.641 77.7307 303.815 121.512 304.858 141.237 218.68 1829.03 70.6555 244.898 85.5517 108.411 42.6188 227.021 127.617 144.051 220.658 156.985 26.094 124.041 86.5465 53.4655 163.65 161.435 107.814 53.6209 105.597 91.0775 126.168 75.841 38.1233 129.615 35.4182 55.2486 182.303 162.42 73.7647 58.9024 87.6194 62.7655 74.6284 65.7917 682.992 345.185 1758.38 113.74 209.059 159.346 22.0903 137.256 46.5387 19.3375 174.978 96.3006 40.4407 29.0289 60.4148 43.117 32.0349
internal_count=486791 93095 393696 51276 153970 41819 40709 124188 37634 29284 35943 27321 15487 29782 9167 11834 12640 42798 9941 27684 2669 8041 3551 1900 7334 24001 1893 7838 22986 3641 8622 2231 25015 8930 6429 10567 19030 239726 8106 20615 6739 6835 2846 4532 3693 11683 3075 2646 2703 10180 6714 4044 3475 4490 2230 2260 7915 6887 5306 4062 1882 9696 2722 5043 16085 14232 6465 5065 2056 4814 7347 3989 81390 40255 231620 1889 23979 13876 2038 11838 4481 1808 18797 10860 4377 3144 1929 3720 2714
is_linear=0
shrinkage=0.0942995


Tree=5
num_leaves=90
num_cat=0
split_feature=107 51 133 11 11 33 33 51 153 98 107 4 55 2 16 107 82 109 94 127 9 118 0 17 149 131 72 56 116 28 33 22 22 131 127 6 133 145 16 81 112 134 33 97 112 51 18 97 16 6 8 127 113 85 72 111 127 127 23 113 138 64 153 142 151 17 127 81 10 72 8 153 97 10 22 141 27 8 145 97 5 118 145 10 84 0 149 127 8
split_gain=2263 298.003 255.195 217.136 128.459 116.092 82.8359 74.2699 60.236 58.0746 49.8445 50.2983 45.1322 44.9531 42.2563 39.5406 32.1942 31.3889 29.517 27.9272 30.4349 26.7964 24.6574 24.5157 23.2675 22.1384 22.1318 22.0756 23.5071 21.2758 21.2499 25.7995 20.9782 24.0485 20.8576 20.274 20.1426 18.6036 17.9779 18.7273 17.9145 32.8353 17.8481 17.0353 16.9128 16.8178 16.2108 26.3881 19.1903 18.4138 27.8136 16.2666 15.0102 14.3941 13.5115 13.2882 13.1607 14.8763 12.9672 12.873 12.7465 12.7021 11.7768 11.5758 11.5261 11.4707 11.4581 18.2816 10.7592 10.4724 10.4302 11.5546 10.2093 10.1228 9.71808 9.75928 9.48674 8.79958 11.3325 12.785 9.05569 8.7471 10.0699 8.65754 8.55251 8.1851 7.93624 7.89451 7.52758
threshold=47.500000000000007 1.0000000180025095e-35 8.0000000000000018 181.01000000000002 677.81500000000017 28925.390000000003 7613.8000000000011 1.0000000180025095e-35 451.60500000000008 1.0000000180025095e-35 22.500000000000004 1.0000000180025095e-35 1.0000000180025095e-35 1.0000000180025095e-35 -12858.869999999997 12.500000000000002 1.0000000180025095e-35 1.0000000180025095e-35 1.0000000180025095e-35 346.50000000000006 709.47500000000014 328.79500000000002 903362283.00000012 2.5000000000000004 2539.5000000000005 885.61500000000012 1623.0900000000001 70.440000000000012 1969.9400000000003 1227.4300000000001 4312.7150000000011 24494.285000000003 5864.7100000000009 357.76500000000004 3615.5000000000005 113.50000000000001 8.0000000000000018 2.5000000000000004 -837.83999999999992 19241.885000000006 82344.60000000002 213955.20000000004 4312.7150000000011 1.0000000180025095e-35 216418.50000000003 1.0000000180025095e-35 2077.8000000000006 19.500000000000004 -220.99999999999997 31.500000000000004 9000.590000000002 3427.5000000000005 -880.49999999999989 48972.750000000007 2333.4650000000006 8.0000000000000018 2994.5000000000005 2538.5000000000005 1.5000000000000002 -1307.9999999999998 1325.2450000000001 865.06500000000017 123.16500000000001 211140.00000000003 4.5000000000000009 3.5000000000000004 412.50000000000006 15425.535000000002 299.27500000000003 535.92000000000019 6313.1000000000013 1542.4950000000001 19.500000000000004 1.0000000180025095e-35 -1.0000000180025095e-35 1.0000000180025095e-35 1.0000000180025095e-35 7633.9700000000003 2.5000000000000004 50.500000000000007 51.500000000000007 14331.415000000003 2.5000000000000004 1.0000000180025095e-35 1.0000000180025095e-35 730429355.50000012 4833.5000000000009 5176.5000000000009 6313.1000000000013
decision_type=2 2 10 2 2 2 2 2 10 2 2 2 2 2 2 2 2 2 2 10 2 10 2 2 10 10 2 2 8 2 2 2 2 8 8 2 8 10 2 2 10 10 2 2 10 2 2 2 2 2 2 8 10 2 2 8 10 8 2 8 8 2 8 10 10 2 10 2 2 2 2 10 2 2 2 8 2 2 10 2 2 8 8 2 2 2 8 8 2
left_child=2 4 3 5 6 9 8 15 23 10 11 14 18 -13 -1 35 26 46 32 20 60 -20 88 27 -18 30 45 28 44 55 31 37 33 38 -11 59 69 43 -10 -40 -28 -42 53 -17 84 62 47 48 49 -16 -51 52 -50 -38 -33 73 57 -29 85 -5 -19 77 76 87 81 -14 -45 -68 -15 -3 71 -34 -30 -6 -39 -76 -12 78 79 80 -31 -64 -83 -84 -2 -48 -9 -7 -21
right_child=1 36 -4 7 29 63 -8 86 12 34 16 13 65 68 17 25 24 19 21 22 -22 -23 -24 -25 -26 -27 40 56 72 61 -32 54 70 -35 -36 -37 42 74 39 -41 41 -43 -44 66 -46 -47 58 -49 51 50 -52 -53 -54 -55 -56 -57 -58 -59 -60 -61 -62 -63 64 -65 -66 -67 67 -69 -70 -71 -72 -73 -74 -75 75 -77 -78 -79 -80 -81 -82 82 83 -85 -86 -87 -88 -89 -90
leaf_value=0.14637630981951266 0.10930049458696538 -0.088790954849564702 0.31649931767223977 -0.011251207552903934 -0.050498635593691686 -0.072351525447598805 -0.068194599229119371 -0.079006909312611659 0.010417715799682451 0.11407707927751259 0.026666398850801801 0.00060633707891181922 -0.045155658574066684 0.12799455199994042 0.021393927652645972 0.013920016709039201 0.06776019366404934 0.079924285136248732 0.17152927874264756 0.14448543144913273 0.14244770955331335 -0.014479513446592341 0.20096595245924861 0.14665430792715814 0.18400394746742185 -0.071549871810516821 0.019419185026178284 -0.0096228863608347967 -0.039610671588253432 -0.069692381146198829 -0.065726528454804131 -0.02014289662046724 0.094750791501674911 -0.018053921457315356 0.21125061150100763 0.14324846872722835 0.073632728542418133 0.068241179678583327 0.16147083936245468 0.038076343683904938 0.2028101764277194 0.054967758020336446 -0.074220696553865276 0.054221335344009351 0.17545477771026377 -0.057006831285704496 0.033988737170937248 0.15272199810388631 0.10263199680564461 0.10450139259066332 0.040895238140863523 0.13554616122736804 0.023213626300216717 -0.073797061017734228 0.078137010899428636 0.081896676130878102 -0.057180217823109961 0.099803670277779033 -0.00091077616611329681 0.084621470473200136 -0.013540058288800057 -0.071708653883251289 -0.047633157588194031 0.060006933652674316 0.065254836084052817 0.064951164030377539 0.19797014208370392 0.054676250450288351 0.062191509293461206 -0.039112791466680966 -0.051571536914065443 -0.018834612459702416 0.062143602366338653 0.058399146546121473 -0.025272515109593285 0.067249298696165874 0.097968767501005666 -0.056093557494911954 -0.0533130521369896 0.088564798560550412 0.049983346201906413 0.063820066317637758 -0.047113829024579376 0.029647042184217334 0.026793765496529853 0.10841461956046336 0.00089742374090667841 -0.012338363098510491 0.079382615830335637
leaf_weight=135.65458991937339 25.606700833886862 1574.1003159587272 35.349046147428453 20.641565005294979 33.637930458411574 27.973457652609795 132.7015435975045 82.395064864307642 28.462593475822359 39.518319031223655 33.450887149199843 99.112255077809095 182.03016050159931 41.556566122919321 67.830961792729795 22.179405665956438 43.191735573578626 26.949684252496809 20.101116813719276 32.765923928935081 42.594197357073426 10.47632134798914 51.553347120527178 24.003419399261475 23.721386332530528 27.475426186341792 31.871808649040759 29.322932054288685 17.868070245720446 14.746655184775593 25.350551881827414 105.10320968972519 10.89794106967747 46.300364694092423 39.052741151768714 30.672051614150405 17.862087500747297 24.09365210076794 24.541480841115117 19.729933124501258 20.681246867403388 37.728810629807413 40.757131102960557 19.300558825489134 21.110748739913106 22.168184500653297 25.703869085758924 47.14126315806061 68.877888984978199 140.48501843959093 108.23101663216949 79.035717752762139 30.548088340088725 8.7852949807420355 14.109086019918321 13.268785276450215 21.691217389889061 17.726070370525122 36.858450299594551 31.39794538076967 25.023010644130409 391.61816385854036 26.890184841118753 14.534882257692514 29.736979325301945 8.8213356891646963 21.490930809173733 12.53536281082779 47.182979681529105 38.660757228732109 53.994541466701776 29.580821245443076 17.216641427017748 9.8027457473799569 42.812544192187488 13.283396969083695 32.925805211998522 188.71794277150184 40.493445181287825 14.363689250312744 9.0871760505251569 25.15267797652632 26.175857567228377 26.08724763803184 19.819034127518535 26.882509001530707 12.765884673222898 64.285787396132946 30.489519528578967
leaf_count=1380 1301 227505 336 998 3209 2512 15105 10968 2400 1135 853 708 18110 862 1109 1366 2017 1088 1539 961 735 965 1354 1271 977 2401 1164 1675 872 1523 2252 9565 897 4548 591 1207 1775 1531 1712 1535 798 1628 5322 1029 1024 2404 914 1148 2269 1716 1691 1482 769 904 1153 1001 1366 879 1366 1209 801 49752 1412 1240 1658 883 1424 930 1090 4220 5938 2906 1014 834 3246 897 983 23914 4397 1498 935 1139 1152 787 967 908 1560 5378 844
internal_value=-0.00669468 -0.0583222 0.0651084 0.0611328 -0.0274336 0.0770236 -0.000487859 0.00677222 0.0137895 0.0832908 0.079267 0.0889422 -0.00571358 0.0442556 0.0975375 0.0241747 0.0496012 0.0896595 0.0211471 0.121301 0.0833544 0.1078 0.152558 0.0574323 0.10897 0.00947103 0.0369041 0.0448612 0.0727798 -0.0561213 0.0168849 0.0245029 0.00873717 0.0350705 0.162376 0.0824361 -0.0854893 0.0497809 0.0688879 0.106479 0.0762851 0.107314 -0.0349846 0.0833731 0.105714 0.0209311 0.0791701 0.0853064 0.0788862 0.0649451 0.0768226 0.103614 0.0782311 0.025027 -0.00851121 -0.00069703 0.0035881 0.0316044 0.0419759 0.0465934 0.0349245 -0.0608905 0.0295517 -0.0182118 0.013466 -0.0400664 0.11226 0.14518 0.093007 -0.0876001 -0.0244422 0.0117455 0.0103218 -0.025925 0.0181507 -0.00336355 0.0620356 -0.0450475 -0.0185566 0.018289 -0.0240634 -0.00129862 0.0147956 -0.00879847 0.0733032 0.0720357 -0.0682877 -0.0305346 0.113105
internal_weight=5428.49 3157.91 2270.58 2235.23 1477.74 1729.62 762.003 505.607 629.301 1622.83 1544.26 1164.48 434.937 187.852 976.625 410.446 379.783 840.97 244.085 209.376 94.5669 30.5774 114.809 194.365 66.9131 327.734 312.87 170.361 101.621 715.737 300.259 274.908 213.508 119.034 78.5711 82.7116 1680.17 155.696 72.734 44.2714 90.2819 58.4101 67.4045 75.5063 66.5365 222.588 631.595 542.15 495.009 316.547 248.716 178.462 99.426 26.6474 119.212 56.7095 68.7402 47.049 89.4448 52.0395 51.9727 659.027 200.42 106.794 134.043 190.851 53.3269 34.0263 88.7395 1612.76 94.4733 40.4788 35.0847 43.4407 80.1896 56.0959 66.3767 267.409 78.691 38.1975 23.8338 104.306 77.4158 52.2631 45.4257 52.5864 95.1609 92.2592 63.2554
internal_count=486791 393696 93095 92759 153970 51023 66907 41736 51802 41893 40167 23195 41433 2660 20535 29208 16972 19155 22440 5783 2624 2504 3159 10369 2994 25794 13978 9098 5178 87063 23393 21141 19936 10195 1726 3414 239726 10423 5647 3247 3590 2426 8001 4749 3292 10388 13372 10184 9036 4516 3407 4520 3038 2679 10718 5044 3920 2554 3188 2207 1889 82019 7984 9130 6148 18993 3383 2354 1952 231725 9741 3803 1886 4043 5674 4143 1836 32267 8353 3956 2458 4490 3078 1939 2268 1822 12528 7890 1805
is_linear=0
shrinkage=0.0942995


Tree=6
num_leaves=90
num_cat=0
split_feature=51 28 133 8 22 32 22 71 21 10 28 32 137 96 10 10 72 16 10 18 118 8 72 153 5 94 0 153 11 12 145 112 32 5 113 135 12 134 115 16 22 73 72 113 20 0 5 27 8 97 1 112 5 148 16 1 135 0 10 27 81 6 127 2 16 4 32 6 73 56 97 5 153 28 1 113 8 74 25 96 113 5 131 64 32 94 153 146 135
split_gain=1522.04 706.765 229.974 133.837 119.411 132.231 73.7451 66.9442 54.0706 53.4786 50.523 44.0868 44.0024 39.7972 35.468 33.4444 38.9504 36.9047 31.5571 31.537 27.8566 27.0473 42.8823 24.9612 26.2916 24.7514 24.4166 24.9522 24.2968 24.0532 18.799 18.7894 17.72 17.5553 17.0879 20.6322 17.086 16.3949 16.044 15.9648 24.8516 15.8291 15.7486 15.8047 15.1792 17.5485 15.038 14.5825 14.1725 13.9015 13.6845 13.4421 13.2117 21.2212 13.153 13.1183 12.988 12.3761 11.9991 11.8621 11.9657 13.4485 11.7335 11.7212 11.6346 11.5458 11.3281 15.6953 10.8625 11.8565 12.4229 18.0658 17.2517 10.5939 10.3771 9.90268 9.75757 12.4334 9.62475 10.3849 8.91921 10.5312 8.74081 8.55316 8.40731 8.20221 10.6076 7.93725 7.71797
threshold=1.0000000180025095e-35 8170.6500000000005 8.0000000000000018 11982.420000000002 24494.285000000003 1.5000000000000002 1330.7750000000003 1.0000000180025095e-35 1.0000000180025095e-35 -181.32499999999996 2692.4650000000006 1.0000000180025095e-35 40208.085000000014 1.0000000180025095e-35 -267.98999999999995 -4222.1349999999993 1623.0900000000001 -394.98999999999995 -712.44499999999982 261.68500000000006 891.72500000000014 13611.020000000002 1.0000000180025095e-35 123.16500000000001 61.500000000000007 1.0000000180025095e-35 1160478061.0000002 615.82500000000016 274.06500000000005 4.5000000000000009 2.5000000000000004 216418.50000000003 1.0000000180025095e-35 67.500000000000014 -2067.9999999999995 -1945.9999999999998 7.5000000000000009 155187.90000000002 694.42000000000007 -837.83999999999992 1.0000000180025095e-35 2.5000000000000004 1606.1100000000004 -637.99999999999989 1.5550000000000004 839527150.50000012 51.500000000000007 8.5000000000000018 1248.1350000000002 19.500000000000004 202101.50000000003 69676.200000000012 44.500000000000007 1.0000000180025095e-35 -3655.2199999999998 202101.50000000003 -1017.9999999999999 1061935553.0000001 -1.0000000180025095e-35 2.5000000000000004 11730.105000000001 179.50000000000003 1742.5000000000002 1.0000000180025095e-35 -220.99999999999997 1.0000000180025095e-35 1.0000000180025095e-35 162.50000000000003 11.500000000000002 6302.8050000000012 75.500000000000014 51.500000000000007 4811.6450000000013 4126.2800000000016 202102.50000000003 -1490.4999999999998 10419.095000000003 1296.4150000000002 3245.0100000000007 1.0000000180025095e-35 -2144.9999999999995 59.500000000000007 64.515000000000015 3905.5850000000005 2.5000000000000004 1.0000000180025095e-35 2774.1450000000009 16408.640000000003 -1626.9999999999998
decision_type=2 2 10 2 2 2 2 2 2 2 2 2 8 2 2 2 2 2 2 2 10 2 2 8 2 2 2 10 2 2 8 8 2 2 10 10 2 8 10 2 2 2 2 10 2 2 2 2 2 2 2 10 2 8 2 2 10 2 2 2 2 2 8 2 2 2 2 2 2 2 2 2 10 2 2 10 2 2 2 2 10 2 8 2 2 2 8 8 10
left_child=1 2 4 6 5 8 11 29 12 37 -9 15 -1 23 -6 -3 26 62 50 -14 25 22 46 34 54 30 27 -17 38 32 52 44 -2 -12 57 -36 39 76 66 -32 -41 87 43 -20 45 64 58 -45 -37 -42 -8 -50 53 -15 63 -39 -33 -11 -16 60 61 78 -18 -25 -29 82 67 74 69 70 -52 72 -72 -57 -5 -54 77 -10 79 -23 81 84 83 85 -7 -30 -87 -31 -61
right_child=7 3 -4 28 14 80 18 10 9 13 33 -13 19 20 21 16 17 -19 42 -21 -22 59 -24 24 -26 -27 -28 31 65 41 36 56 -34 -35 35 48 -38 55 -40 40 49 -43 -44 47 -46 -47 -48 -49 51 -51 68 -53 75 -55 -56 73 -58 -59 -60 88 -62 -63 -64 -65 -66 -67 -68 -69 -70 -71 71 -73 -74 -75 -76 -77 -78 -79 -80 -81 -82 -83 -84 -85 -86 86 -88 -89 -90
leaf_value=0.18642627999709249 0.096383396914916417 -0.032058053074262287 0.2757693569059752 0.024709906777470342 -0.054063096041501689 0.041693146597998866 -0.071770319333569602 0.13561152059320306 -0.020465709786227741 0.013887648022398981 -0.067171403633267304 -0.065837746620862253 0.11430328175706293 0.17814812898311658 0.11398085990090584 0.15938645892311057 0.11949911271708692 0.21532377251968218 -0.024669648234273259 0.034388719478218421 0.0059197925724036333 -0.016557142399458057 0.15147282999691938 0.010823150127963563 0.087960803533729967 0.15949990623218538 -0.03471629431885629 -0.053711996822972077 -0.046185592993781603 -0.057213817545765037 0.052618022925602151 0.051111159048477191 -0.076144724873552602 0.061493926139656464 0.14195256767718167 0.026339842032181645 0.02326382543232676 -0.0052204134124027943 -0.064761122012366529 0.17073933699571114 0.045630417186328147 -0.087794125046616781 0.095795599401838905 0.14385815369622723 -0.062392153602610093 0.094589468570605684 -0.040273739075181468 -0.00011907435856862467 0.11943672200613313 0.1266149533538313 -0.019495246970530764 0.069847674279183883 0.053390317378579084 0.087624626253175145 -0.0065610718742032444 0.040092791978713162 0.15995706958834033 0.074296163564391296 0.0081829130425454099 0.026106279549219805 -0.019671783389092892 0.09431540007948129 0.009821013838452736 0.064645596265048871 0.047759182483333842 0.031968777631874244 -0.056497235174427368 -0.032045273165046829 -0.063546062261416777 -0.080671243224100936 0.19595605913892827 -0.036329386657669431 0.013124559783664315 0.12355202964386702 0.12313368834034404 0.1113917882126879 -0.059277624541863361 0.069031747711146493 -0.056298271647900182 0.089716827782270012 -0.058605703519457028 0.063344060966281104 -0.077456623758573651 -0.071956131882402657 -0.036420242337114161 0.10700789747106411 -0.048693158885523287 0.038051091713158916 -0.072566312339987157
leaf_weight=54.501275168266147 11.303488733246924 37.10329723963514 43.066611422691494 28.939038395415992 72.947006438393146 15.178150956053285 84.656679538544267 19.914334499742836 42.787224954459816 67.735984364524484 43.674580383114517 32.01143656577915 154.58578178659081 50.911655913107097 16.578864170238376 18.765536305494606 17.846571078058332 25.661653650458902 57.127578971441835 61.335711354389787 31.925861068535596 16.4754713694565 31.016275419853628 67.888236284255981 68.918710802681744 50.313152663875371 30.645224418491125 19.907926935702562 144.51804898353294 92.194453220814466 80.767904959619045 23.69561094045639 9.9567727735266072 12.026494410354642 44.195813541300595 48.634812321513891 50.317810758482665 29.891209538560361 46.43537708837539 37.215658005792648 48.193145195487887 1509.2440229719505 20.15154663240537 11.408015245571734 16.869018975179642 28.149840413127095 25.233114268630743 13.850158995483069 63.837770883925259 30.955102116800845 88.2187733463943 203.76306101121008 42.698224753141403 42.047763593494892 90.113750268705189 35.578905062749982 16.562347621656954 54.362301494926214 22.429093774408102 9.3168710730969888 60.810766423121095 24.249995267949998 16.875502568669617 76.552174913231283 20.288123995997012 11.128028637729583 21.932421449106187 29.614569258410484 50.674361363053322 19.523707047570497 9.7098027863539809 12.797509331256149 8.7026304230093938 21.818517164792866 14.199620938859878 67.642643689643592 27.0516128661111 20.377397710457444 14.417395072989164 16.232262831181288 44.320726827718318 15.644097000826148 263.35576697764918 126.85289801424369 63.565654029138386 7.4604184459894869 8.1322544920258224 8.4936962523497623 28.95911740232259
leaf_count=976 964 3182 403 2183 7298 809 10073 1521 1997 1339 5221 3425 1471 1421 961 898 914 1232 4925 1802 1547 939 1208 407 1348 1078 1944 1312 17928 12503 1675 1527 1233 1309 1149 1268 1966 1390 5342 789 1436 235294 1452 891 1219 1734 1572 1324 1315 1067 8591 3876 1227 983 2675 1368 1012 1015 1115 964 5094 1735 1068 1678 1169 1397 2526 2411 5796 2269 927 1348 950 1189 992 1949 1603 1003 1261 1098 3581 970 36399 17557 3978 853 1038 1017 2928
internal_value=-0.00646854 0.0277378 0.0599197 -0.0254586 0.0557777 0.0649475 0.00432465 -0.0800421 0.0719073 0.064895 0.00669819 0.0388466 0.110713 0.0714345 0.00418072 0.0511501 0.0642726 0.12957 -0.023561 0.0916024 0.091326 0.0201702 0.0604163 0.057946 0.0367559 0.0967678 0.0417266 0.0579678 -0.0543361 -0.0840631 0.0897655 0.0427998 0.0155837 -0.0393911 0.0712729 0.0816013 0.0723099 0.0163015 -0.0193579 0.0848289 0.107186 -0.085379 0.0210713 0.0027938 0.017718 0.0374906 0.0164533 0.0649092 0.0731669 0.0773037 -0.0402462 0.0816774 0.111012 0.137202 0.0217105 0.045437 0.095891 0.0407836 0.0531483 -0.00232011 0.0110658 0.0372538 0.0661937 0.0393486 -0.00249652 -0.063128 0.00290862 0.0208173 -0.0261726 -0.0125429 -0.00140552 0.0497273 0.109541 0.0718182 0.0571073 0.0889472 -0.0118885 0.00840686 0.00789061 0.0361847 -0.0237097 -0.00732394 -0.065051 -0.0536659 -0.0213636 -0.0391748 0.0258031 -0.0491776 -0.0485481
internal_weight=5377.94 3671.13 2287.36 1383.77 2244.29 1905.63 681.203 1706.81 1766.92 1496.5 75.6154 304.382 270.423 1318.99 338.666 272.371 235.267 60.3837 376.821 215.921 532.989 265.719 95.2573 786.003 303.473 501.063 174.884 144.238 702.568 1631.19 450.75 125.473 21.2603 55.7011 482.53 360.431 247.45 177.505 141.121 197.132 116.364 1609.93 102.537 82.3858 85.2149 68.3459 64.2411 25.2582 316.236 79.1482 274.283 267.601 203.3 92.9594 234.554 87.2886 40.258 122.098 39.008 170.462 132.186 71.3751 34.7221 144.44 40.1961 561.447 94.6857 72.7532 189.627 138.952 119.429 31.2099 18.4124 57.3974 43.1387 110.341 90.2162 63.1646 47.1251 32.7077 138.709 94.3879 550.319 286.964 78.7438 160.111 15.5927 100.688 38.276
internal_count=486791 227729 79921 147808 79518 53345 59182 259062 44007 39758 8051 20636 4249 31208 26173 17211 14029 3214 38546 3273 15138 18875 4856 16070 6108 13591 10815 8871 88626 251011 12513 7973 2197 6530 9962 7608 6933 8550 13454 4967 3292 248814 8592 7140 5434 4215 3648 2215 6459 2503 29954 5191 5580 2404 4760 3947 2539 2354 2076 14019 10127 5033 1982 2085 2481 75172 8112 5586 19881 14085 11816 3225 1877 2557 3175 3176 4603 3000 3298 2037 9338 5757 73775 37376 4787 19819 1891 13520 3892
is_linear=0
shrinkage=0.0942995


Tree=7
num_leaves=90
num_cat=0
split_feature=107 51 52 11 133 33 107 33 56 98 31 96 94 50 97 17 113 8 74 153 116 16 153 94 133 1 22 109 23 149 10 28 16 138 28 8 7 149 112 8 33 74 127 8 74 8 153 64 16 6 8 0 74 82 113 22 6 7 147 103 5 7 7 1 5 5 8 22 97 18 113 74 1 71 56 112 153 113 147 23 5 135 28 5 18 5 112 32 74
split_gain=1568.31 279.752 141.312 101.702 96.1479 79.5039 74.4013 65.8405 45.0337 39.9203 35.3746 35.0582 34.0526 31.2322 28.2904 27.6594 25.065 24.8147 30.1315 35.7773 24.2125 24.0332 23.347 28.3028 21.0148 20.4216 29.1346 26.0445 25.1314 31.1399 24.6895 18.3149 17.064 16.4788 16.2557 29.1131 21.0808 17.4439 16.3856 16.2512 15.2386 15.1031 29.4307 13.0658 16.9082 16.7209 12.6971 12.4328 12.2524 12.0749 11.6759 11.4446 11.0668 11.009 10.8185 10.8165 10.6927 10.3981 10.1752 10.1468 10.0847 12.8006 9.73208 9.37573 9.28875 9.26697 9.09695 10.2323 9.26077 9.00063 9.15161 8.93543 8.86137 8.55337 8.22687 8.21641 7.91906 7.76725 7.64409 7.48771 7.48623 7.99677 7.63184 7.34308 7.16903 7.42273 7.11779 13.3123 7.07188
threshold=47.500000000000007 1.0000000180025095e-35 14721.890000000001 677.81500000000017 8.0000000000000018 44706.715000000004 22.500000000000004 11339.790000000003 70.440000000000012 1.0000000180025095e-35 699.8900000000001 1.0000000180025095e-35 1.0000000180025095e-35 1.0000000180025095e-35 8.5000000000000018 3.5000000000000004 -2144.9999999999995 32700.310000000001 1571.9650000000004 1.0000000180025095e-35 3936.2700000000004 -394.98999999999995 4263.8550000000005 1.0000000180025095e-35 8.0000000000000018 202101.50000000003 -17592.589999999993 1.0000000180025095e-35 1.5000000000000002 2075.5000000000005 299.27500000000003 1227.4300000000001 -105.40999999999998 18574.480000000003 5471.8050000000012 3810.7000000000003 -569.12999999999988 2285.5000000000005 164689.20000000004 6313.1000000000013 4312.7150000000011 203.23500000000004 1032.5000000000002 11982.420000000002 1698.2800000000002 -1.0000000180025095e-35 2774.1450000000009 865.06500000000017 -22.164999999999996 31.500000000000004 17089.800000000007 550069900.00000012 1296.4150000000002 1.5000000000000002 -392.99999999999994 9334.0000000000018 162.50000000000003 116.65500000000002 -10307.274999999998 2.5000000000000004 44.500000000000007 1023.0550000000002 537.84500000000014 202101.50000000003 42.500000000000007 36.500000000000007 9000.590000000002 3190.2150000000006 4.5000000000000009 1001.0200000000001 -1230.9999999999998 153.61500000000004 202102.50000000003 1.0000000180025095e-35 819.92500000000007 69676.200000000012 1.0000000180025095e-35 -668.49999999999989 -1.0000000180025095e-35 1.5000000000000002 59.500000000000007 -956.99999999999989 15305.300000000001 40.500000000000007 3397.6350000000007 47.500000000000007 164689.20000000004 3.5000000000000004 807.42500000000007
decision_type=2 2 2 2 10 2 2 2 2 2 2 2 2 2 2 2 8 2 2 8 8 2 10 2 8 2 2 2 2 8 2 2 2 10 2 2 2 10 10 2 2 2 10 2 2 2 10 2 2 2 2 2 2 2 8 2 2 2 10 2 2 2 2 2 2 2 2 2 2 2 10 2 2 2 2 8 10 10 8 2 2 10 2 2 2 2 8 2 2
left_child=2 3 4 7 5 6 9 8 12 13 11 46 20 16 -14 33 -1 18 41 -20 34 -16 23 25 73 30 -27 43 29 -29 65 52 78 59 37 36 64 -2 -38 -21 53 42 -13 44 45 -28 55 71 51 -47 -45 -7 63 -26 58 56 62 -51 -41 66 61 -43 -8 -5 -36 -18 67 -10 -68 70 -12 -33 88 -3 -73 -62 -67 -44 -4 -77 82 -82 -22 -57 -74 -86 -53 -88 -37
right_child=1 24 32 31 -6 48 10 -9 15 -11 69 17 14 -15 21 -17 22 -19 19 39 80 -23 -24 -25 40 26 27 28 -30 -31 -32 47 -34 -35 35 72 38 -39 -40 54 -42 60 77 50 -46 49 -48 -49 -50 57 -52 86 -54 -55 -56 83 -58 -59 -60 -61 75 -63 -64 -65 -66 76 68 -69 -70 -71 -72 74 84 -75 -76 79 -78 -79 -80 -81 81 -83 -84 -85 85 -87 87 -89 -90
leaf_value=-0.0017203115024317598 0.034864121086866914 -0.087589125243074786 -0.040287171261228993 -0.031142481676926997 0.1875704699620947 0.087540167741804731 -0.027351331495846631 -0.067591755918568169 0.083496540008367259 0.13177849361405575 -0.044772690997392769 0.016136843562703142 -0.013966990035055379 -0.013289621233115783 0.045850464723341991 0.10644097536776492 0.090666160558512857 -0.01135853955339975 0.21702596506057797 0.13577840667344104 -0.00099226310792564928 0.2020954813857927 0.0034741563595035055 0.13645084217335815 -0.042172507620812191 0.12091142001539644 0.11125110824715388 0.174412115416921 0.050548400134901084 0.073821070632282881 0.0054359909366166722 0.046784478717359052 -0.068773101874102419 -0.056645129925527692 0.066751660939304 0.011050703185124649 0.053530044102502776 0.12666770772612532 0.18088372057413554 0.026478135107806427 -0.070950890844756476 -0.00069442144058961012 0.16531086095708353 0.0038705875852871737 0.11397652373144292 0.016784710519355518 -0.051675834431080488 -0.068437301191242472 -0.070766964267919924 0.032596773305365701 0.05539215094471308 -0.076757885815849747 -0.042368548473535682 0.078471547632674332 -0.0034674709503339138 0.037386916437260283 0.07590890307992236 0.07673251299715951 0.11461246750508938 -0.068622689331083966 -0.062355727688369222 0.095406685692446369 0.038015418188204045 0.081779479847715442 -0.044524202413434327 0.062430522839038396 0.043918590291780815 -0.0023816313583658799 -0.037612503949538946 -0.043388301111297517 0.043433510477275297 -0.031061757290239557 0.092212308125807871 -0.047774921475758826 -0.067628455052076292 0.046051329473485156 0.024281556464490518 0.08612633892500586 0.068109890517374899 -0.027341515403788756 0.073649980154230618 -0.036554254669042434 -0.055515037310512015 -0.049776530998338432 0.049542860817912371 -0.06573304319698034 0.066917037829048842 -0.038996530573655444 -0.058131916746559098
leaf_weight=48.347613384947181 44.128020780626684 1310.9144158246927 10.26956578157842 10.243466964457186 46.602895803749561 10.268599484115837 33.132319460157305 113.19425756903365 21.378533497918397 77.927957411389798 16.392603422049433 42.905689238104969 13.708254029508678 46.78847766155377 13.893059819936747 14.431145457550882 75.810613511595875 44.110771269537508 19.918923931661993 30.561286365613341 46.214126827660948 23.667529070749882 49.04634720319882 54.219794965349138 12.442302700597795 108.96625569369644 48.448285982012749 58.920328674372286 57.013228811323643 51.100980117917061 87.47840812895447 9.9634919981472176 96.850313732400537 102.63538872962818 12.186484627891334 19.458991863299161 18.25837376806885 31.574879243504256 17.685857939999551 19.988484503701329 35.3663798016496 22.503855674993247 22.109934991691262 60.373261796310544 61.230934822931886 68.376819781959057 29.583552214317024 344.64273294107988 38.151825696695596 70.607144223991781 111.07726004067808 14.889258710201828 28.405576254241168 14.639936576597391 20.901204592548311 11.960917683783917 32.883362267632037 144.83610371872783 27.918505753856152 20.273192403838038 16.298610119149089 27.249643650371581 52.107890819665045 18.0763825844042 14.738365366123615 201.81919500650838 16.142499279230833 29.173264053184539 53.272098134271801 64.202625042758882 28.899985363241285 150.20482282945886 10.023035622201862 49.805179987102747 86.058724483009428 28.890394596382976 63.646260776557028 21.952784093096852 13.247999032493682 21.605435970239341 15.013687578495594 9.59838521433994 45.116274226456881 30.538388024549931 10.388050368521364 9.5184660442173463 16.263270172756165 30.054463410750031 40.453767089638859
leaf_count=1481 1815 225422 1217 867 324 900 1324 14454 1041 1332 977 1972 883 1605 955 1108 1387 3081 685 1330 3078 1422 1733 913 1369 1042 1101 1577 1497 1143 1113 1163 13525 11722 955 1739 1128 1459 1062 1472 5322 1242 898 1243 888 1436 2027 49752 3466 1385 2710 1468 2656 1310 1105 741 1198 2093 1220 1340 928 938 1710 1521 1193 3870 1179 2072 4195 4776 1583 19326 752 6303 11778 1651 2165 912 1404 1244 1368 969 5060 2350 907 950 1474 2239 4101
internal_value=-0.00623022 -0.054163 0.0483966 -0.0244517 0.0534613 0.05077 0.0546537 -0.00119791 0.0103123 0.0660083 0.0283199 0.0379502 0.0302846 0.0625172 0.101985 -0.0203964 0.0650127 0.0549819 0.0640472 0.101679 0.0196097 0.144303 0.0673626 0.0697295 -0.083677 0.0668803 0.0754196 0.0686475 0.10136 0.127691 0.0501315 -0.0519617 -0.051277 -0.0279328 0.0374246 0.0197124 0.0689323 0.0731544 0.116193 0.0785569 -0.0301877 0.0419901 0.0717282 0.0589755 0.0684416 0.0600503 0.00509532 -0.0568754 -0.0276169 0.0513103 0.0372497 -0.00458454 -0.000779771 0.0230445 0.0531418 0.0155514 0.0302296 0.0622679 0.0778397 -0.00691951 0.0197994 0.0519395 0.0126078 0.0409349 0.00584048 0.0615882 0.00350775 0.0339366 -0.0186523 -0.02068 0.0115093 -0.0406921 -0.0147302 -0.0861318 -0.0443811 -0.004141 0.0532842 0.12586 0.0207755 0.014649 -0.0154869 0.0306718 -0.027926 -0.0252454 0.0271712 -0.00557727 -0.0200402 -0.00180773 -0.0356622
internal_weight=5326.14 2836.89 2489.25 1413.72 2368.88 2322.28 2212.65 766.126 652.932 1546.04 666.617 557.122 395.626 1468.11 51.2688 257.306 1421.32 366.916 322.805 119.288 344.357 37.5606 1372.97 1323.92 1423.17 1269.71 840.951 731.984 167.035 110.021 428.754 647.595 120.368 242.875 228.414 152.711 62.8691 75.7029 35.9442 99.3695 62.4486 203.516 86.9684 564.95 393.499 332.268 190.206 590.87 109.627 283.82 171.451 71.4756 56.7254 27.0822 68.8082 160.623 118.124 215.443 47.907 140.24 116.548 49.7535 85.2402 28.3198 26.9248 341.276 119.966 50.5518 69.4146 109.495 45.2926 246.227 89.8423 1360.72 236.264 66.7944 265.465 44.0627 23.5176 50.4958 115.942 24.6121 91.3304 42.4993 29.9296 19.9065 61.207 46.3177 59.9128
internal_count=486791 393696 93095 153970 76949 76625 67078 66907 52453 31714 35364 28028 29796 30382 3260 22657 28777 18678 15597 5812 26536 2377 27296 25563 239726 24650 16115 15073 4217 2720 8535 87063 16146 21549 16061 12787 4338 3274 2190 5127 8001 9785 3782 10856 6903 6015 9350 82019 9547 4914 3953 6081 5044 2679 3797 7323 4232 3478 2692 9827 6003 2180 3034 2388 2148 7422 8487 3113 5374 7336 2560 32267 8449 231725 31104 3823 6035 1810 2621 2895 10475 2337 8138 3091 2609 1857 5181 3713 5840
is_linear=0
shrinkage=0.0942995


Tree=8
num_leaves=90
num_cat=0
split_feature=107 51 52 11 133 33 10 33 22 50 108 4 153 94 55 22 1 22 97 73 72 10 151 133 118 16 28 8 94 10 16 113 147 16 72 22 74 140 6 151 0 17 112 109 23 113 33 22 131 112 127 8 72 18 72 112 149 127 74 6 18 127 18 8 64 2 8 7 113 112 22 140 8 64 10 109 81 112 0 149 151 39 74 7 9 134 18 134 107
split_gain=1309.76 270.497 111.756 89.7513 71.0821 61.3146 57.7056 57.1615 55.1951 48.6162 41.1932 39.0857 36.3419 34.4241 26.1333 24.6422 25.1662 36.2213 25.6508 24.4476 24.3709 22.9724 22.006 21.1335 19.0621 18.4879 17.5548 17.5297 16.3485 18.1091 15.4801 15.3462 14.7705 14.3568 14.3088 14.2569 14.0458 20.8608 14.0457 13.2588 13.0176 12.548 12.2896 16.6209 23.0875 22.674 12.178 11.909 11.9508 11.8639 11.532 11.5016 12.3371 13.8206 11.0065 10.7538 10.6718 10.2569 10.2358 10.0646 9.74262 15.2036 11.5865 9.5476 10.1169 9.52343 9.23311 15.0253 9.18487 12.8168 9.13651 9.04629 8.61823 7.8818 9.15127 12.064 13.7325 7.76736 7.50425 7.4834 6.96721 6.95608 10.7385 10.8089 6.79855 6.66093 6.62607 6.56076 6.46748
threshold=47.500000000000007 1.0000000180025095e-35 14721.890000000001 677.81500000000017 8.0000000000000018 44706.715000000004 -181.32499999999996 11339.790000000003 -1624.3249999999998 1.0000000180025095e-35 1.0000000180025095e-35 1.5000000000000002 451.60500000000008 1.0000000180025095e-35 1.0000000180025095e-35 24494.285000000003 202101.50000000003 -17592.589999999993 19.500000000000004 4.5000000000000009 2333.4650000000006 299.27500000000003 2.5000000000000004 8.0000000000000018 5327.9900000000007 -394.98999999999995 9522.135000000002 2529.6100000000006 1.0000000180025095e-35 1.0000000180025095e-35 -105.40999999999998 -1033.4999999999998 -2782.4049999999993 -394.98999999999995 1748.0150000000001 18843.515000000003 304.67500000000007 11743.975000000002 66.500000000000014 1.0000000180025095e-35 456372658.00000006 3.5000000000000004 82344.60000000002 1.0000000180025095e-35 1.5000000000000002 -1702.9999999999998 28925.390000000003 18843.515000000003 439.87500000000006 108314.82000000002 596.50000000000011 21112.410000000003 3398.6200000000003 2077.8000000000006 535.92000000000019 46802.700000000004 2539.5000000000005 1924.5000000000002 1836.4500000000003 121.50000000000001 1.0000000180025095e-35 3615.5000000000005 1001.0200000000001 11982.420000000002 3284.4600000000005 1.0000000180025095e-35 9000.590000000002 851.81000000000006 -591.99999999999989 69676.200000000012 305.31500000000005 28958.280000000002 3810.7000000000003 6935.1100000000006 1.0000000180025095e-35 1.0000000180025095e-35 19241.885000000006 216418.50000000003 806155175.50000012 5600.5000000000009 4.5000000000000009 58692.535000000011 712.6400000000001 1564.615 356.55500000000006 213955.20000000004 1001.0200000000001 213955.20000000004 110.50000000000001
decision_type=2 2 2 2 10 2 2 2 2 2 2 2 10 2 2 2 2 2 2 2 2 2 8 8 8 2 2 2 2 2 2 8 10 2 2 2 2 8 2 10 2 2 8 2 2 10 2 2 10 10 10 2 2 2 2 10 10 8 2 2 2 8 2 2 2 2 2 2 8 10 2 10 2 2 2 2 2 10 2 8 8 2 2 2 2 8 2 8 2
left_child=2 3 4 7 5 6 8 10 22 11 12 13 25 15 27 16 21 -18 42 -20 24 32 31 54 -10 55 35 33 29 63 87 -1 49 50 70 -5 37 -26 46 -29 -7 81 86 60 45 -45 -25 48 73 59 -14 52 53 71 -3 -2 -11 -24 68 84 65 62 -62 64 -27 -44 67 -16 -17 -70 -35 -28 -40 74 75 -41 -77 -72 -67 -23 -15 82 83 -37 -8 -57 -19 -4 -56
right_child=1 23 30 26 -6 40 9 -9 20 56 -12 -13 14 80 66 58 17 18 19 -21 -22 79 57 38 36 28 51 39 -30 -31 -32 -33 -34 34 -36 41 -38 -39 72 47 -42 -43 43 44 -46 -47 -48 -49 -50 -51 -52 -53 -54 -55 88 85 -58 -59 -60 -61 61 -63 -64 -65 -66 78 -68 -69 69 -71 77 -73 -74 -75 -76 76 -78 -79 -80 -81 -82 -83 -84 -85 -86 -87 -88 -89 -90
leaf_value=0.066241160642047936 -0.05912961301024771 -0.086812424733188981 -0.017515745074517707 0.058575969776497497 0.15746509120910865 0.077992523808605607 0.049960678238094546 -0.065649771522912376 -0.063867868237647035 0.0050679679723581641 0.16141933070341022 -0.029294069579654754 -0.080795564825635477 0.086500504102486372 -0.036818450668942869 -0.015104291618319885 0.11649153928049778 0.043689710492362331 0.13815524514427355 0.050829357033423901 0.083698045424013504 0.028459911041969412 0.13597248499303463 0.1315903850948375 0.00086606196976124646 0.07714758906593365 -0.045235926771447402 0.094965833761811849 0.14043584495672234 0.10624912977623673 -0.066880962679258998 -0.033787349542782584 0.092739647286268351 0.1121082608523413 0.15338489736311997 -0.046893014930787458 -0.020262560199478658 0.10893275982536309 0.020495032763760947 -0.0083455078929986874 -0.036264413678331858 0.062361995299560491 0.024888552690887016 0.066265482904530729 0.037621566508453767 0.15123261894903006 -0.040070052625585398 -0.058957574890120212 -0.052080839865018241 0.01848529671587399 0.032833953056718615 -0.071200742876861678 0.062665833506308888 -0.055565869590454349 0.0075134929421850506 0.048066762535733477 -0.072277928159938942 0.069510455254158526 0.071464764291487126 0.027932702589116249 0.071498220738430582 0.092249962974318117 0.00012021017474612296 -0.011397817294195712 -0.006151736705458986 0.037380022569126169 -0.060592113332141713 0.061242042403207846 -0.0032603842410659444 0.092301556839458246 0.049537514870644339 0.067251713283847242 -0.076428399283749171 -0.049120215030202502 -0.026316934305058114 0.15081391735925459 0.016651469114833069 -0.045691483528154574 0.083973879464240911 -0.020165257563909893 0.13807651459817002 -0.08716091362666839 -0.055016685733369659 0.075186875207526593 0.092233014373626618 -0.019593890285581807 -0.00054143685746352614 0.086124393139728042 -0.073553946956686059
leaf_weight=27.971429941710085 20.999441832304001 1214.6716472143307 15.73225029371679 18.324549715965986 50.081002824008465 9.7573286006227118 63.089129350613803 105.91019294271246 55.147362082265317 42.175540823955089 15.395027798600493 45.046216418966651 12.427319637965409 42.010577607434243 69.141576930880547 67.970654852222651 123.01514823827893 111.84598876954988 70.505934318061918 47.859418694861233 24.592588699422777 58.704802016261965 32.243082629982382 7.8920843163505179 61.425364525057375 37.801128798630089 11.32082174671814 9.8477116585709137 17.801956535782665 31.459226029925048 90.509822796564549 26.616864909883589 70.04318137280643 12.656500479672102 13.567086817696689 11.693186342716219 138.67228841222823 21.424428754020482 10.606177060399203 16.156464211642742 97.19280728045851 11.357942545320837 149.26049354206771 52.308915093075484 56.27799616754055 59.921003475785255 6.877516979817301 44.138561493717134 28.385027616284788 102.00670287758112 22.00606058165431 262.72011386463419 9.5541372867301089 191.2712638117373 17.43403834104538 31.739331016782671 25.425969081930816 57.421295472886413 27.45244111539796 66.794807757250965 43.204325291793793 106.53675915952772 38.018309111706913 40.02270061802119 19.73379475530237 62.408098892308772 87.189018074888736 17.389565667137504 28.998831880744547 21.909929661080241 23.367272949777544 14.500312934163956 35.341293353587389 12.165642387699334 16.273307061288506 16.053520263638351 11.749917763750998 11.299503618851302 60.569618301466107 54.064750693738461 52.268310504034162 23.410159444436431 47.009250216186047 14.381039889995007 72.952614617999643 21.842439534608275 41.215971145778894 8.2954100612550956 17.570767147932202
leaf_count=1079 703 227505 1836 1491 324 837 1284 14454 3925 1436 1362 1004 912 1050 6799 4067 1239 2138 1674 1549 1573 1515 1133 752 3161 1671 1322 690 706 1356 13525 1024 1560 682 792 1236 9579 1054 1434 1307 8710 1130 1586 1065 1407 1424 1090 5015 3258 2531 1819 42573 1028 26803 1845 1381 1272 1310 1610 1254 862 2033 1224 2560 983 935 10598 1328 1370 1232 1863 1543 4725 1114 1377 1235 1016 916 898 685 900 2668 5770 1499 1025 1010 1411 785 2375
internal_value=-0.00596224 -0.0519746 0.0420381 -0.0228705 0.0462667 0.043962 0.0471946 -0.0013361 0.0167053 0.0544824 0.0089748 0.0574369 0.00533742 0.0596679 -0.0108383 0.0565141 0.0600934 0.0684971 0.0619366 0.102846 -0.00626242 0.0424649 0.0646719 -0.0826704 -0.0142588 0.0363016 -0.0496868 0.00867783 0.0557234 0.0440347 -0.049019 0.017468 0.0536903 0.0404896 0.0680099 -0.0183246 -0.00190877 0.0288114 -0.0283407 -0.0109152 -0.0258405 -0.0313904 0.055741 0.0615764 0.0869131 0.111631 0.0516561 -0.01811 -0.000220718 0.0447181 -0.00817597 -0.0577731 -0.0422083 -0.0468238 -0.0853101 -0.00193159 -0.024023 0.09341 0.0195652 0.0579105 0.052295 0.0688201 0.0380879 0.0239725 0.0485769 0.0408979 -0.0389343 -0.0171119 0.00758016 0.0378672 0.0435338 0.0179335 -0.0540553 0.0201118 0.034095 0.0564586 0.094116 0.018498 0.0603287 0.0051477 0.115094 -0.0424257 -0.028096 0.0204392 0.0726293 0.0204851 0.0317793 0.0182654 -0.0331786
internal_weight=5273.4 2692.46 2580.95 1382.06 2466.41 2416.33 2309.38 766.519 445.515 1863.86 660.609 1796.26 645.214 1751.21 423.814 1656.94 1510.6 1022.95 899.933 118.365 301.262 487.656 144.253 1310.39 276.669 221.4 615.543 250.094 146.819 129.017 114.537 54.5883 374.886 95.3237 60.8904 126.176 221.522 82.8498 60.7171 154.77 106.95 107.852 781.567 628.506 168.508 112.23 14.7696 144.922 100.784 304.843 34.4334 489.367 226.647 217.092 1249.68 74.5812 67.6015 89.6644 146.332 202.837 459.998 187.759 81.2226 97.5576 57.5349 272.238 173.72 86.5311 118.879 50.9088 47.3233 25.8211 45.9475 72.3989 60.2332 43.9599 27.8034 34.6668 122.978 112.77 94.2789 96.4936 73.0835 26.0742 136.042 53.5818 153.062 24.0277 35.0048
internal_count=486791 393696 93095 153970 76949 76625 67078 66907 23838 43240 52453 40532 51091 39528 40721 37578 29299 19445 18206 3223 19292 9854 4546 239726 17719 10370 87063 21996 7276 6570 16146 2103 7654 6984 4253 13794 13794 4215 8001 15012 9547 12303 14983 11434 3896 2489 1842 14322 9307 6094 2731 73269 30696 29668 231725 3094 2708 2443 8279 3563 7538 4119 2086 5214 2654 3419 18725 8127 6669 2602 3461 2865 6159 6049 4935 3558 2251 2779 1833 2200 1950 11173 8505 2735 2309 2391 3549 2621 4220
is_linear=0
shrinkage=0.0942995


Tree=9
num_leaves=90
num_cat=0
split_feature=107 51 52 31 98 11 32 21 137 32 50 55 135 39 8 96 10 9 8 153 97 10 17 107 12 18 6 94 153 74 18 4 16 147 137 27 8 16 71 127 142 74 57 8 6 16 20 153 16 137 147 82 151 95 127 1 16 10 74 80 148 84 134 20 151 8 113 0 18 127 16 8 84 6 72 52 80 17 140 153 127 127 81 135 151 112 113 73 134
split_gain=1104.81 194.976 154.451 78.8845 72.5085 60.5775 55.0351 51.5391 46.6004 43.5382 38.7297 35.0522 27.4566 26.9654 25.1646 24.3907 33.9066 25.9568 27.5574 24.023 23.2623 22.8878 20.5723 19.6902 19.635 19.4533 19.1519 18.5978 18.0093 22.5405 17.4148 16.3651 38.2807 16.1638 15.2275 25.0083 14.7724 15.0441 14.716 18.1398 14.2365 13.7105 16.7634 15.1559 13.6442 13.5684 19.4356 12.1261 12.0951 11.9053 11.7749 11.6548 11.298 10.5748 18.3707 10.554 10.4898 10.649 10.4671 10.4078 10.1036 9.67678 9.63814 9.62698 12.7458 8.9744 15.9902 10.1185 10.1626 9.69514 9.63227 8.94757 8.49 8.41548 8.40543 8.39445 8.21136 8.19359 8.34958 8.14902 12.5434 8.08413 7.93111 7.67448 7.48171 7.04143 6.83128 6.79041 6.6717
threshold=61.500000000000007 1.0000000180025095e-35 14721.890000000001 699.8900000000001 1.0000000180025095e-35 677.81500000000017 2.5000000000000004 1.0000000180025095e-35 14242.515000000001 1.0000000180025095e-35 1.0000000180025095e-35 1.0000000180025095e-35 -1704.4999999999998 102675.13000000002 9000.590000000002 1.0000000180025095e-35 -854.00999999999988 1045.1250000000002 7633.9700000000003 13237.305000000002 1.5000000000000002 -181.32499999999996 3.5000000000000004 22.500000000000004 5.5000000000000009 261.68500000000006 162.50000000000003 1.0000000180025095e-35 1.0000000180025095e-35 1431.825 3397.6350000000007 1.0000000180025095e-35 -12858.869999999997 -4366.6999999999989 2623.3400000000006 2.5000000000000004 3810.7000000000003 -9040.5399999999991 1.0000000180025095e-35 142.50000000000003 789336.91500000015 627.07500000000016 1.0000000180025095e-35 21112.410000000003 102.50000000000001 -394.98999999999995 1020.9500000000002 451.60500000000008 -220.99999999999997 15956.040000000003 -1198.9299999999998 1.5000000000000002 3.5000000000000004 1.5000000000000002 2097.5000000000005 202102.50000000003 -1630.1549999999997 1.0000000180025095e-35 2229.1850000000004 5.5000000000000009 3.5050000000000003 3.5000000000000004 93746.160000000018 10790.375000000002 14.500000000000002 -1.0000000180025095e-35 -1445.9999999999998 1105656707.5000002 1.0000000180025095e-35 3427.5000000000005 -220.99999999999997 26034.850000000002 1.5000000000000002 66.500000000000014 1748.0150000000001 173239.71000000005 1.0000000180025095e-35 2.5000000000000004 4979.4450000000006 451.60500000000008 596.50000000000011 2293.5000000000005 1827.6050000000002 -1154.9999999999998 3.5000000000000004 355012.11500000005 -1702.9999999999998 2.5000000000000004 507400.7950000001
decision_type=2 2 2 2 2 2 2 2 10 2 2 2 8 2 2 2 2 2 2 10 2 2 2 2 2 2 2 2 10 2 2 2 2 10 10 2 2 2 2 10 8 2 2 2 2 2 2 8 2 10 10 2 10 2 8 2 2 2 2 2 8 2 8 2 10 2 10 2 2 10 2 2 2 2 2 2 2 2 10 8 10 8 2 10 8 8 10 2 10
left_child=2 5 3 4 6 9 8 -6 10 11 13 19 -9 15 21 23 25 20 -19 27 -18 58 75 31 51 -17 -14 33 71 -30 36 32 -1 48 -31 -36 44 -38 39 -22 73 42 55 53 -10 -41 60 -44 -2 56 62 -3 -37 -43 -55 72 -13 77 -5 63 82 -53 -25 64 -50 -34 70 68 -68 -70 -67 76 -7 -12 87 -4 -20 78 -58 80 -64 -29 -47 -80 -15 -76 -39 -26 -32
right_child=1 24 22 14 7 41 -8 12 30 -11 40 49 26 84 -16 16 17 18 28 -21 38 -23 -24 50 74 -27 -28 81 29 34 88 -33 65 -35 35 52 37 86 -40 45 -42 43 47 -45 -46 46 -48 -49 59 -51 -52 61 -54 54 -56 -57 57 -59 -60 -61 -62 -63 79 -65 -66 66 67 -69 69 -71 -72 -73 -74 -75 85 -77 -78 -79 83 -81 -82 -83 -84 -85 -86 -87 -88 -89 -90
